signal_ts,code,entry_ts,exit_ts,pred_score,pred_up,target_up,target_return,target_volatility,future_ret_n,entry_price,exit_price,gross_trade_ret,net_trade_ret,breakout_20,atr_norm_14,amihud_20
2024-03-18,sh.600000,2024-03-19,2024-03-22,0.5,1,1,0.003136964198164227,0.00927178662557868,0.003136964198164227,6.598838051734633,6.619538370453411,0.003136964198164227,0.0025352625301457987,0.2443259155268903,1.1028104751412018,0.31542922913911303
2024-03-19,sh.600000,2024-03-20,2024-03-25,0.5,1,1,0.0049050229322673555,0.0074755131835141046,0.0049050229322673555,6.555986903855029,6.588144169963087,0.0049050229322673555,0.0043022607471636665,0.22482863940471987,1.0815152930797132,0.13041331403047532
2024-03-20,sh.600000,2024-03-21,2024-03-26,0.5,1,1,0.006659429664745309,0.010812689676657751,0.006659429664745309,6.610043612351355,6.654062732869715,0.006659429664745309,0.006055615151300708,0.8906725342521544,1.0820872571170337,0.20200219039104403
2024-03-21,sh.600000,2024-03-22,2024-03-27,0.5,1,1,0.012551246943123928,0.009283509610303602,0.012551246943123928,6.619538370453411,6.702621831191468,0.012551246943123928,0.011943898399521036,1.861248560562588,1.0719843844776067,0.11960830279359168
2024-03-22,sh.600000,2024-03-25,2024-03-28,0.5,1,1,0.01511237654691322,0.009282595584926945,0.01511237654691322,6.588144169963087,6.687706685405935,0.01511237654691322,0.014503491786413303,1.2275248045872253,0.9971037442082332,0.12176943994057449
2024-03-25,sh.600000,2024-03-26,2024-03-29,0.5,1,1,0.008900968923868602,0.010606823967072725,0.008900968923868602,6.654062732869715,6.7132903384734695,0.008900968923868602,0.008295809890224382,1.0108045264407264,1.042183890377703,0.22379167208205408
2024-03-26,sh.600000,2024-03-27,2024-04-01,0.5,1,1,0.002632087909477221,0.005732448213387347,0.002632087909477221,6.702621831191468,6.720263721076148,0.002632087909477221,0.0020306890763814867,1.0204851585952068,1.076262058607156,0.15462420845951122
2024-03-27,sh.600000,2024-03-28,2024-04-02,0.5,1,1,0.01980191838068701,0.0067001063905394375,0.01980191838068701,6.687706685405935,6.820136107345339,0.01980191838068701,0.019190220738951158,1.1171076852584334,1.0772175097185681,0.23845588432777634
2024-03-28,sh.600000,2024-03-29,2024-04-03,0.5,1,1,0.011548587119289522,0.00426428562515924,0.011548587119289522,6.7132903384734695,6.790819356805426,0.011548587119289522,0.010941839991156499,1.1112833835511298,1.0841165143290965,0.3547072532843398
2024-03-29,sh.600000,2024-04-01,2024-04-08,0.5,1,1,0.0074110438801962,0.010100735492400108,0.0074110438801962,6.720263721076148,6.770067890400542,0.0074110438801962,0.006806778533472224,0.7287836955627813,1.1022913775193999,0.3919504649585593
2024-04-01,sh.600000,2024-04-02,2024-04-09,0.5,1,0,-0.0002440277115643985,0.009831127121656718,-0.0002440277115643985,6.820136107345339,6.818471805139505,-0.0002440277115643985,-0.0008437013928329629,1.3827469216065593,1.0390403594436988,0.2439810212154034
2024-04-02,sh.600000,2024-04-03,2024-04-10,0.5,1,1,0.005894696402799049,0.009791187492082413,0.005894696402799049,6.790819356805426,6.830849175241052,0.005894696402799049,0.005291340591700999,1.0162544023866744,1.0579017114905753,0.2822330551780599
2024-04-03,sh.600000,2024-04-08,2024-04-11,0.5,1,0,-0.0015438245053103206,0.0068053139716748035,-0.0015438245053103206,6.770067890400542,6.759616093689726,-0.0015438245053103206,-0.002142718542395894,0.8191524656775792,1.010078111796248,0.284969697557005
2024-04-08,sh.600000,2024-04-09,2024-04-12,0.5,1,0,-0.009093660499227552,0.006521239150331534,-0.009093660499227552,6.818471805139505,6.756466937421002,-0.009093660499227552,-0.00968802599327967,1.524450213892842,0.9781077626742412,0.23292220026523638
2024-04-09,sh.600000,2024-04-10,2024-04-15,0.5,1,0,-0.015256071850909048,0.004848642500838025,-0.015256071850909048,6.830849175241052,6.726637249421836,-0.015256071850909048,-0.015846741007051524,1.1976650486277107,1.019228839347631,0.2542902533703466
2024-04-10,sh.600000,2024-04-11,2024-04-16,0.5,1,1,0.005393018572314112,0.002863821844972772,0.005393018572314112,6.759616093689726,6.796070828825713,0.005393018572314112,0.004789963677639175,1.0679230610892574,1.0457265772774322,0.2236763387343407
2024-04-11,sh.600000,2024-04-12,2024-04-17,0.5,1,0,-0.00011382390656422547,0.008439578272952896,-0.00011382390656422547,6.756466937421002,6.755697889960612,-0.00011382390656422547,-0.0007135756866861742,0.5306782338576753,1.060762725762364,-0.012305102676814755
2024-04-12,sh.600000,2024-04-15,2024-04-18,0.5,1,1,0.024182421833753853,0.020118802383802627,0.024182421833753853,6.726637249421836,6.889303628911021,0.024182421833753853,0.023568096678200368,0.03581370789877708,1.0321719891122507,-0.07294176848619763
2024-04-15,sh.600000,2024-04-16,2024-04-19,0.5,1,1,0.00423446708819597,0.020322373885537953,0.00423446708819597,6.796070828825713,6.824848567080428,0.00423446708819597,0.0036321071159348683,0.6930604961674177,1.0761331984121616,-0.3440829977851973
2024-04-16,sh.600000,2024-04-17,2024-04-22,0.5,1,1,0.02389314610937121,0.01469951927223501,0.02389314610937121,6.755697889960612,6.917112766717236,0.02389314610937121,0.023278994467198277,0.9572993572294988,1.0631013784695804,-0.25821813462484783
2024-04-17,sh.600000,2024-04-18,2024-04-23,0.5,1,0,-0.009405776063359128,0.008587437113145155,-0.009405776063359128,6.889303628911021,6.824504381745987,-0.009405776063359128,-0.009999954344236728,0.8637463138173095,1.0989448273755202,-0.33695177444996605
2024-04-18,sh.600000,2024-04-19,2024-04-24,0.5,1,1,0.005672829211484931,0.006505897755206192,0.005672829211484931,6.824848567080428,6.8635647673967295,0.005672829211484931,0.005069606480777367,0.5922965779679188,1.0660869007413258,-0.11072176892405533
2024-04-19,sh.600000,2024-04-22,2024-04-25,0.5,1,0,-0.006469372932980888,0.004163005336720416,-0.006469372932980888,6.917112766717236,6.8723633846108525,-0.006469372932980888,-0.00706531252734266,0.7304643231218251,1.0432194424898922,-0.03617415595406066
2024-04-22,sh.600000,2024-04-23,2024-04-26,0.5,1,1,0.02170224551906519,0.006879050888325732,0.02170224551906519,6.824504381745987,6.972611451385596,0.02170224551906519,0.02108940802300263,0.7512492770707877,1.0073588654814136,0.0037707743728784804
2024-04-23,sh.600000,2024-04-24,2024-04-29,0.5,1,1,0.006092405610048424,0.007011033507553933,0.006092405610048424,6.8635647673967295,6.9053803878915545,0.006092405610048424,0.005488931209002734,1.2909571368533643,1.0309021200183526,0.20527803457826624
2024-04-24,sh.600000,2024-04-25,2024-04-30,0.5,1,1,0.04412529165767487,0.002368110572549542,0.04412529165767487,6.8723633846108525,7.175608423335377,0.04412529165767487,0.04349900436886722,1.3622257274322531,0.9958662015947265,0.2465735164099776
2024-03-18,sh.600009,2024-03-19,2024-03-22,0.5,1,0,-0.01935687751137094,0.013683542569605913,-0.01935687751137094,36.49018877966195,35.78385266508821,-0.01935687751137094,-0.019945086922040778,1.7129670176968252,0.3122579390749257,0.8934865485109339
2024-03-19,sh.600009,2024-03-20,2024-03-25,0.5,1,0,-0.02582890903067081,0.014106989267459246,-0.02582890903067081,36.3160184768369,35.3780153392435,-0.02582890903067081,-0.026413236387045513,1.8197289836510149,0.35585093883517877,0.8934396849017516
2024-03-20,sh.600009,2024-03-21,2024-03-26,0.5,1,0,-0.019001828036000368,0.0036897167542608105,-0.019001828036000368,36.04428985556456,35.35938245805035,-0.019001828036000368,-0.01959025041246576,2.270974656454602,0.4084856078427839,0.9029298862088527
2024-03-21,sh.600009,2024-03-22,2024-03-27,0.5,1,0,-0.023123568236612324,0.0033815027008437934,-0.023123568236612324,35.78385266508821,34.95640230621914,-0.023123568236612324,-0.02370951831064816,1.536833779024264,0.3579997330368128,0.8331269348644568
2024-03-22,sh.600009,2024-03-25,2024-03-28,0.5,1,0,-0.0228783846126841,0.005737999083942353,-0.0228783846126841,35.3780153392435,34.56862349747983,-0.0228783846126841,-0.02346448175277438,0.8958592819264674,0.4376560462725267,0.8431833037659664
2024-03-25,sh.600009,2024-03-26,2024-03-29,0.5,1,0,-0.015306684595473574,0.008635872299786946,-0.015306684595473574,35.35938245805035,34.81814754327524,-0.015306684595473574,-0.015897323393076923,0.33328831107293283,0.3797109185269134,0.7983229578112457
2024-03-26,sh.600009,2024-03-27,2024-04-01,0.5,1,1,0.016727815412015623,0.013497141591435205,0.016727815412015623,34.95640230621914,35.541146551466746,0.016727815412015623,0.016117961678888237,-0.47653831673793745,0.2029060554565042,0.741921523319063
2024-03-27,sh.600009,2024-03-28,2024-04-02,0.5,1,1,0.03678650573689013,0.022859802573005537,0.03678650573689013,34.56862349747983,35.8402823640873,0.03678650573689013,0.03616462039904933,-1.1243799139544473,0.041483329718019,0.5631394026953903
2024-03-28,sh.600009,2024-03-29,2024-04-03,0.5,1,1,0.03728280142921481,0.024701970055742636,0.03728280142921481,34.81814754327524,36.11626562426531,0.03728280142921481,0.036660618403264955,-0.698445355477711,-0.0616504170132776,0.42543005594725286
2024-03-29,sh.600009,2024-04-01,2024-04-08,0.5,1,1,0.003124441162457803,0.004100343529681082,0.003124441162457803,35.541146551466746,35.652192772714095,0.003124441162457803,0.0025227470060074086,-0.6100930564921807,-0.23247573770846097,0.40696945717182226
2024-04-01,sh.600009,2024-04-02,2024-04-09,0.5,1,0,-0.0020907246392954937,0.00721373939212018,-0.0020907246392954937,35.8402823640873,35.7653502026704,-0.0020907246392954937,-0.0026892906347132373,-0.06651757832065489,-0.11201944630988915,0.3725303620201859
2024-04-02,sh.600009,2024-04-03,2024-04-10,0.5,1,0,-0.03113213960747696,0.005743752847720935,-0.03113213960747696,36.11626562426531,34.99188900075093,-0.03113213960747696,-0.03171328597980083,-0.2069184440983282,-0.11975943017425436,0.37218837376995945
2024-04-03,sh.600009,2024-04-08,2024-04-11,0.5,1,0,-0.017123851046685235,0.008753795285032534,-0.017123851046685235,35.652192772714095,35.04168993418742,-0.017123851046685235,-0.01771339987140963,-0.37133140436527595,0.12462314330165282,0.3935440930411338
2024-04-08,sh.600009,2024-04-09,2024-04-12,0.5,1,0,-0.016885948557616715,0.006831132541291569,-0.016885948557616715,35.7653502026704,35.161418339003944,-0.016885948557616715,-0.0174756400810252,-1.3607207671675057,0.11412866528782828,0.3595183590424579
2024-04-09,sh.600009,2024-04-10,2024-04-15,0.5,1,1,0.0003591892906267269,0.006064186153561679,0.0003591892906267269,34.99188900075093,35.0044577125398,0.0003591892906267269,-0.000240846212296697,-1.4607487833889814,0.07837214177516884,0.33919761523404224
2024-04-10,sh.600009,2024-04-11,2024-04-16,0.5,1,1,0.02918253399856985,0.003476392165610053,0.02918253399856985,35.04168993418742,36.06429524206021,0.02918253399856985,0.028565209675467607,-1.483160273585082,0.021052015170134015,0.38832335049260464
2024-04-11,sh.600009,2024-04-12,2024-04-17,0.5,1,1,0.0070882595567223206,0.00798973292305769,0.0070882595567223206,35.161418339003944,35.41065159857431,0.0070882595567223206,0.006484187822508591,-1.5990957438965006,0.04718056608676907,0.42792989603059073
2024-04-12,sh.600009,2024-04-15,2024-04-18,0.5,1,1,0.034264942408908095,0.023334845358987655,0.034264942408908095,35.0044577125398,36.20388344011607,0.034264942408908095,0.033644569555318915,-1.6600173266519573,0.01861546132013016,0.23542136820015702
2024-04-15,sh.600009,2024-04-16,2024-04-19,0.5,1,0,-0.011250998536316836,0.024101904829081866,-0.011250998536316836,36.06429524206021,35.65853590907948,-0.011250998536316836,-0.011844070015751162,-0.8850441784943904,-0.01969695858631981,0.14508083544299952
2024-04-16,sh.600009,2024-04-17,2024-04-22,0.5,1,1,0.00691015307933629,0.01802430198858225,0.00691015307933629,35.41065159857431,35.65534462176051,0.00691015307933629,0.006306188176959271,-0.45262529170472204,0.06159709359547522,0.0937200649660812
2024-04-17,sh.600009,2024-04-18,2024-04-23,0.5,1,0,-0.011675066114287036,0.008450592072670998,-0.011675066114287036,36.20388344011607,35.781200707359766,-0.011675066114287036,-0.0122678832294838,-0.27059127753427015,0.16627580266909053,0.16034911277254388
2024-04-18,sh.600009,2024-04-19,2024-04-24,0.5,1,0,-0.004911083341537781,0.01229781079915576,-0.004911083341537781,35.65853590907948,35.48341386739377,-0.004911083341537781,-0.005507957629246496,0.830872705814711,0.37542955005656975,0.2293678322472204
2024-04-19,sh.600009,2024-04-22,2024-04-25,0.5,1,1,0.005257530837859736,0.013163278550276266,0.005257530837859736,35.65534462176051,35.842803695644946,0.005257530837859736,0.004654557211445143,0.28140809877248146,0.4566762057963967,0.1475043285430185
2024-04-22,sh.600009,2024-04-23,2024-04-26,0.5,1,1,0.010909535126235825,0.014139640556261022,0.010909535126235825,35.781200707359766,36.171556973336614,0.010909535126235825,0.010303171314303805,1.2501280086331157,0.6898728274259524,0.06099387840418883
2024-04-23,sh.600009,2024-04-24,2024-04-29,0.5,1,1,0.028488477494516662,0.011123148927179185,0.028488477494516662,35.48341386739377,36.49428230478467,0.028488477494516662,0.02787156948042413,1.1114970392269938,0.7573878373041684,0.10939477605123464
2024-04-24,sh.600009,2024-04-25,2024-04-30,0.5,1,1,0.006071052431805057,0.011517227681710379,0.006071052431805057,35.842803695644946,36.06040723618511,0.006071052431805057,0.005467590838823977,1.0173228313343066,0.7629865822317773,0.15939629661758095
2024-03-18,sh.600010,2024-03-19,2024-03-22,0.5,1,0,-0.006017904473950231,0.03798454411058696,-0.006017904473950231,1.6262605867377886,1.6164739058780444,-0.006017904473950231,-0.006614114868147447,1.353236842966524,-0.22524848833729935,0.7522221913640816
2024-03-19,sh.600010,2024-03-20,2024-03-25,0.5,1,0,-0.03430089096806255,0.054366543568157365,-0.03430089096806255,1.6593370340678069,1.6024202953839446,-0.03430089096806255,-0.03488013665977385,1.5962048634039445,-0.6145579687852826,0.7424168870684307
2024-03-20,sh.600010,2024-03-21,2024-03-26,0.5,1,0,-0.032134184513563646,0.05650421551243209,-0.032134184513563646,1.645932365929903,1.593041671587233,-0.032134184513563646,-0.032714729839257606,-0.19845987227647338,-0.7591460549061594,0.6873310186358295
2024-03-21,sh.600010,2024-03-22,2024-03-27,0.5,1,0,-0.019496706988164414,0.009940049704631877,-0.019496706988164414,1.6164739058780444,1.5849579877821072,-0.019496706988164414,-0.02008483252630988,-0.9268173843153167,-0.8853810699148619,0.6935292733276662
2024-03-22,sh.600010,2024-03-25,2024-03-28,0.5,1,0,-0.01596581495527405,0.0034558923754283545,-0.01596581495527405,1.6024202953839446,1.5768363494682531,-0.01596581495527405,-0.016556058393269235,-1.3431284801686771,-1.146590137857658,0.612183349401197
2024-03-25,sh.600010,2024-03-26,2024-03-29,0.5,1,0,-0.002356664877465775,0.003486873556965474,-0.002356664877465775,1.593041671587233,1.5892874062324618,-0.002356664877465775,-0.002955071356595451,-1.6615009897726618,-1.2398722944086602,0.5051524191327093
2024-03-26,sh.600010,2024-03-27,2024-04-01,0.5,1,1,0.030119809168932754,0.0036650860843337454,0.030119809168932754,1.5849579877821072,1.63269661991591,0.030119809168932754,0.029501922649387557,-1.682776869115142,-1.3405662217761383,0.5610995029863431
2024-03-27,sh.600010,2024-03-28,2024-04-02,0.5,1,1,0.04723670465654872,0.013175749328324932,0.04723670465654872,1.5768363494682531,1.6513209024008426,0.04723670465654872,0.046608551079827976,-1.8172381841463856,-1.2039782977749467,0.4710445120158391
2024-03-28,sh.600010,2024-03-29,2024-04-03,0.5,1,1,0.034922136355538536,0.013156554075251986,0.034922136355538536,1.5892874062324618,1.644788717742087,0.034922136355538536,0.03430136930384098,-1.6753756666141852,-1.1640266653405955,0.48440489617257665
2024-03-29,sh.600010,2024-04-01,2024-04-08,0.5,1,1,0.04076984463350386,0.006231631111547815,0.04076984463350386,1.63269661991591,1.6992614074445693,0.04076984463350386,0.04014557000911134,-2.277992655245619,-1.228461292480998,0.5867006308675101
2024-04-01,sh.600010,2024-04-02,2024-04-09,0.5,1,1,0.027444548491775356,0.009542769846539486,0.027444548491775356,1.6513209024008426,1.6966406589832923,0.027444548491775356,0.026828266647233923,-1.5420514507403535,-1.3518597417591736,0.6202829383524252
2024-04-02,sh.600010,2024-04-03,2024-04-10,0.5,1,1,0.01579784923551597,0.012827644347822374,0.01579784923551597,1.644788717742087,1.6707728419302699,0.01579784923551597,0.015188553314751108,-1.9066149824526837,-1.4312357691865356,0.6389488307626268
2024-04-03,sh.600010,2024-04-08,2024-04-11,0.5,1,0,-0.037705272261074674,0.014168104765389586,-0.037705272261074674,1.6992614074445693,1.6351902934350973,-0.037705272261074674,-0.038282475936615046,-1.050599783017938,-1.635890286866353,0.6086920516962308
2024-04-08,sh.600010,2024-04-09,2024-04-12,0.5,1,0,-0.031504574946420894,0.015957124677430296,-0.031504574946420894,1.6966406589832923,1.643188716186177,-0.031504574946420894,-0.03208549792455917,-1.1611423641374523,-1.5079595789904854,0.7520327333776982
2024-04-09,sh.600010,2024-04-10,2024-04-15,0.5,1,0,-0.03030985204910619,0.03545515815985313,-0.03030985204910619,1.6707728419302699,1.6201319642846685,-0.03030985204910619,-0.03089149164599736,0.9812543531758116,-1.7140660864052282,0.7791393680117693
2024-04-10,sh.600010,2024-04-11,2024-04-16,0.5,1,0,-0.0038027256800078346,0.03593110522096787,-0.0038027256800078346,1.6351902934350973,1.6289721133155484,-0.0038027256800078346,-0.004400264782868701,-1.5375990612920662,-1.503717998580147,0.5756420543437981
2024-04-11,sh.600010,2024-04-12,2024-04-17,0.5,1,0,-0.01895835246262234,0.023576323530082693,-0.01895835246262234,1.643188716186177,1.6120365653430966,-0.01895835246262234,-0.01954680091660832,-1.3934920185195705,-1.4472607463842373,0.5760931185014768
2024-04-12,sh.600010,2024-04-15,2024-04-18,0.5,1,1,0.012017410905674097,0.009230020220025418,0.012017410905674097,1.6201319642846685,1.6396017558219063,0.012017410905674097,0.011410382567632382,-1.4025791107106673,-1.4143517442400575,0.48734079889448795
2024-04-15,sh.600010,2024-04-16,2024-04-19,0.5,1,1,0.01376942736902187,0.00615478996567678,0.01376942736902187,1.6289721133155484,1.651402126517023,0.01376942736902187,0.013161348136370599,-2.3062328397149625,-1.4339532053964883,0.6504848592538979
2024-04-16,sh.600010,2024-04-17,2024-04-22,0.5,1,1,0.005701475336713058,0.018926873589670688,0.005701475336713058,1.6120365653430966,1.6212275520632855,0.005701475336713058,0.005098235423485198,-2.3767385901337104,-1.360659506696222,0.6524198772008462
2024-04-17,sh.600010,2024-04-18,2024-04-23,0.5,1,0,-0.023480685536229062,0.01889370161156604,-0.023480685536229062,1.6396017558219063,1.6011027825897797,-0.023480685536229062,-0.02406642140414672,-2.4234679869705777,-1.37867899776429,0.526643801843928
2024-04-18,sh.600010,2024-04-19,2024-04-24,0.5,1,0,-0.0374596713644163,0.015560268944244383,-0.0374596713644163,1.651402126517023,1.5895411455681596,-0.0374596713644163,-0.0380370223562998,-1.12412772203262,-1.0480610193609718,0.5159329403330329
2024-04-19,sh.600010,2024-04-22,2024-04-25,0.5,1,0,-0.011172112758126351,0.009330515296826112,-0.011172112758126351,1.6212275520632855,1.6031150150460423,-0.011172112758126351,-0.011765231554832223,-1.534376301221785,-1.1364065923878266,0.5121796690791792
2024-04-22,sh.600010,2024-04-23,2024-04-26,0.5,1,1,0.0014583878198635158,0.00941312799297831,0.0014583878198635158,1.6011027825897797,1.6034378113872596,0.0014583878198635158,0.0008576929956189971,-1.364251777736442,-1.1102007365670108,0.5829561657922636
2024-04-23,sh.600010,2024-04-24,2024-04-29,0.5,1,1,0.009014673548723984,0.012896505927090804,0.009014673548723984,1.5895411455681596,1.6038703400887304,0.009014673548723984,0.008409446312765745,-1.063304192643176,-0.990107576455936,0.5378775710546236
2024-04-24,sh.600010,2024-04-25,2024-04-30,0.5,1,1,0.004555192722548007,0.012896505927090804,0.004555192722548007,1.6031150150460423,1.610417512896992,0.004555192722548007,0.003952640372619554,-1.719272094192874,-0.9103388568301181,0.4946514721626863
2024-03-18,sh.600011,2024-03-19,2024-03-22,0.5,1,0,-0.03723281767140407,0.013112277223336778,-0.03723281767140407,8.732507291761731,8.407371439954323,-0.03723281767140407,-0.037810304734682054,-0.007795324328887495,-1.8172853759125072,0.041892043458363795
2024-03-19,sh.600011,2024-03-20,2024-03-25,0.5,1,1,0.009117438379808274,0.005540610633459595,0.009117438379808274,8.481949688612518,8.559283342240086,0.009117438379808274,0.008512149503443256,-0.04467542605220724,-1.6327870444639203,-0.01565541273333899
2024-03-20,sh.600011,2024-03-21,2024-03-26,0.5,1,0,-0.0009008655530389209,0.002782063129780827,-0.0009008655530389209,8.531966665776032,8.524280510908158,-0.0009008655530389209,-0.0015001452497980239,-0.5268320276028773,-1.597849457779591,0.003034929708111324
2024-03-21,sh.600011,2024-03-22,2024-03-27,0.5,1,1,0.03852919298850477,0.007201483187941711,0.03852919298850477,8.407371439954323,8.731300676691404,0.03852919298850477,0.03790626235190264,-1.2660615561085813,-1.5719439634288745,0.01867888174342827
2024-03-22,sh.600011,2024-03-25,2024-03-28,0.5,1,0,-0.0023824167764091575,0.010703485034048266,-0.0023824167764091575,8.559283342240086,8.538891562012491,-0.0023824167764091575,-0.0029808078090334256,-0.8475574712933122,-1.5385313182940077,0.004203844499894538
2024-03-25,sh.600011,2024-03-26,2024-03-29,0.5,1,1,0.022117285074702675,0.010697040650704509,0.022117285074702675,8.524280510908158,8.712814453025668,0.022117285074702675,0.02150419862959141,-0.7090316592251388,-1.4344454021718325,-0.009856184367778817
2024-03-26,sh.600011,2024-03-27,2024-04-01,0.5,1,0,-0.006596971207930125,0.016465789834895387,-0.006596971207930125,8.731300676691404,8.673700537520483,-0.006596971207930125,-0.007192834266287806,-0.012831497154037117,-1.346879759310004,-0.13810452342854168
2024-03-27,sh.600011,2024-03-28,2024-04-02,0.5,1,1,0.03495858297551013,0.01702740963232229,0.03495858297551013,8.538891562012491,8.837399111203023,0.03495858297551013,0.03433779406239901,-0.2417532075614443,-1.3525544411721713,-0.04546139353395147
2024-03-28,sh.600011,2024-03-29,2024-04-03,0.5,1,1,0.013001542978236413,0.01875662252410647,0.013001542978236413,8.712814453025668,8.826094484599095,0.013001542978236413,0.01239392433804154,-0.4410600494003735,-1.315889946631014,0.0069729547435597936
2024-03-29,sh.600011,2024-04-01,2024-04-08,0.5,1,1,0.04354797937692356,0.022362089521667836,0.04354797937692356,8.673700537520483,9.05142266965108,0.04354797937692356,0.042922038371599136,0.10442195393000006,-1.175230031750193,0.025835853414456683
2024-04-01,sh.600011,2024-04-02,2024-04-09,0.5,1,1,0.04243868201040901,0.026199774236319143,0.04243868201040901,8.837399111203023,9.212446681883481,0.04243868201040901,0.04181340638389064,-0.7330054504271438,-1.152092963626004,0.0702506005585401
2024-04-02,sh.600011,2024-04-03,2024-04-10,0.5,1,1,0.049960675177340486,0.02336449078722235,0.049960675177340486,8.826094484599095,9.267052124229716,0.049960675177340486,0.049330887708474824,0.2861970518794685,-1.099940720416136,-0.10859232655829132
2024-04-03,sh.600011,2024-04-08,2024-04-11,0.5,1,1,0.0209615266644545,0.02157293034203191,0.0209615266644545,9.05142266965108,9.24115430729324,0.0209615266644545,0.020349133466415203,0.1932850661748536,-1.128483254827981,-0.08444233359569504
2024-04-08,sh.600011,2024-04-09,2024-04-12,0.5,1,1,0.03340615618369491,0.025705238598539615,0.03340615618369491,9.212446681883481,9.520199114573476,0.03340615618369491,0.03278629844730552,0.40856505373028534,-1.270547942527706,-0.15371999263103106
2024-04-09,sh.600011,2024-04-10,2024-04-15,0.5,1,1,0.01815451683071112,0.02521128069363652,0.01815451683071112,9.267052124229716,9.43529097799114,0.01815451683071112,0.01754380733346217,0.09980536091119363,-1.1128422535551827,-0.04650417851939237
2024-04-10,sh.600011,2024-04-11,2024-04-16,0.5,1,1,0.03057418165714476,0.011607747991890242,0.03057418165714476,9.24115430729324,9.52369503780716,0.03057418165714476,0.029956022595868825,0.12387221512457594,-1.2425991775929277,-0.019226401867181827
2024-04-11,sh.600011,2024-04-12,2024-04-17,0.5,1,0,-0.0204158001327861,0.00863992800409731,-0.0204158001327861,9.520199114573476,9.325836632226997,-0.0204158001327861,-0.021003374380431983,0.8332611112750958,-1.2012486628114425,-0.05889854330242258
2024-04-12,sh.600011,2024-04-15,2024-04-18,0.5,1,0,-0.0031690008851825713,0.006982665709205984,-0.0031690008851825713,9.43529097799114,9.405390532530928,-0.0031690008851825713,-0.003766920108884242,0.8688068783059881,-1.1644335220235582,-0.15370018323120035
2024-04-15,sh.600011,2024-04-16,2024-04-19,0.5,1,0,-0.045608785114200745,0.01843198764207004,-0.045608785114200745,9.52369503780716,9.089330877335588,-0.045608785114200745,-0.046181248104235295,0.5980510244339398,-1.1720817537007082,0.055180380347357075
2024-04-16,sh.600011,2024-04-17,2024-04-22,0.5,1,0,-0.017214449159980605,0.018041620359794286,-0.017214449159980605,9.325836632226997,9.165297491648223,-0.017214449159980605,-0.017803943642139997,-0.022613341653975782,-1.306703973214418,0.009050372599807064
2024-04-17,sh.600011,2024-04-18,2024-04-23,0.5,1,0,-0.06047169350229631,0.02822436882493595,-0.06047169350229631,9.405390532530928,8.836630638979258,-0.06047169350229631,-0.06103524142181893,0.015256713485073431,-1.22787412366832,-0.0964555103428065
2024-04-18,sh.600011,2024-04-19,2024-04-24,0.5,1,1,0.02251607140690659,0.028494647473082606,0.02251607140690659,9.089330877335588,9.2939869004117,0.02251607140690659,0.021902745761756215,-1.455799561440293,-1.5242170561391752,-0.300931330616395
2024-04-19,sh.600011,2024-04-22,2024-04-25,0.5,1,0,-0.012545641985448386,0.02111718281471324,-0.012545641985448386,9.165297491648223,9.050312950628864,-0.012545641985448386,-0.013137936911779113,-1.535112555343652,-1.4979069173288042,-0.2807993535687476
2024-04-22,sh.600011,2024-04-23,2024-04-26,0.5,1,1,0.0012996870517183456,0.00800538267443104,0.0012996870517183456,8.836630638979258,8.848115493402558,0.0012996870517183456,0.0006990874193770757,-1.6882651105855624,-1.6348184657580143,-0.13527070689231926
2024-04-23,sh.600011,2024-04-24,2024-04-29,0.5,1,0,-0.07078005769607887,0.03390924823443297,-0.07078005769607887,9.2939869004117,8.636157971374887,-0.07078005769607887,-0.07133742245203423,-1.3602209443377904,-1.5878921005211266,-0.20491258464575898
2024-04-24,sh.600011,2024-04-25,2024-04-30,0.5,1,0,-0.04003469952135563,0.03872976038266117,-0.04003469952135563,9.050312950628864,8.687986391077164,-0.04003469952135563,-0.04061050595971116,-0.4184467386975658,-1.780865016094575,-0.2079198360476075
2024-03-18,sh.600015,2024-03-19,2024-03-22,0.5,1,1,0.00785146094979483,0.009049479119504258,0.00785146094979483,5.634824860564187,5.679066467916847,0.00785146094979483,0.007246931432080217,-1.1450443030997366,0.7386151626684923,0.3408809229577197
2024-03-19,sh.600015,2024-03-20,2024-03-25,0.5,1,1,0.015213278188272339,0.007835384931791638,0.015213278188272339,5.59144319855207,5.676507379406582,0.015213278188272339,0.014604332904944783,-1.3064907437771576,0.8188527502306061,0.27997363526010965
2024-03-20,sh.600015,2024-03-21,2024-03-26,0.5,1,1,0.020896652276236605,0.009309086952187535,0.020896652276236605,5.6359565677532055,5.7537291923945375,0.020896652276236605,0.020284297991156608,-1.2612608787366824,0.8129559384468711,0.22936600793774015
2024-03-21,sh.600015,2024-03-22,2024-03-27,0.5,1,1,0.02657433016101507,0.004860381723883935,0.02657433016101507,5.679066467916847,5.829983855242646,0.02657433016101507,0.02595857029087978,-0.21873393152026785,0.817693199824656,0.16171438389819667
2024-03-22,sh.600015,2024-03-25,2024-03-28,0.5,1,1,0.019421310888852572,0.006000130253388189,0.019421310888852572,5.676507379406582,5.786752593985922,0.019421310888852572,0.01880984154312304,1.4411521338053452,0.8233120091041994,0.34149763208629735
2024-03-25,sh.600015,2024-03-26,2024-03-29,0.5,1,1,0.0136068898190429,0.008741755725700233,0.0136068898190429,5.7537291923945375,5.832019551565074,0.0136068898190429,0.012998908079673521,1.174476861785032,0.8129774734932445,0.32852019753896183
2024-03-26,sh.600015,2024-03-27,2024-04-01,0.5,1,0,-0.000867076106772946,0.006294121669038123,-0.000867076106772946,5.829983855242646,5.824928815539892,-0.000867076106772946,-0.0014663760711193241,1.2588858395659945,0.8891467959628615,0.14651351334160911
2024-03-27,sh.600015,2024-03-28,2024-04-02,0.5,1,1,0.018466965280985903,0.0102422560854804,0.018466965280985903,5.786752593985922,5.893616353229733,0.018466965280985903,0.017856068370890377,1.1394494967661908,0.9156376500693696,0.2223105262557239
2024-03-28,sh.600015,2024-03-29,2024-04-03,0.5,1,1,0.007504618590187251,0.004075324154202577,0.007504618590187251,5.832019551565074,5.875786633911092,0.007504618590187251,0.006900297115475684,0.9727503492045916,0.9503185881181597,0.1929917364248999
2024-03-29,sh.600015,2024-04-01,2024-04-08,0.5,1,1,0.008432990334054535,0.008585619404726609,0.008432990334054535,5.824928815539892,5.874050383938904,0.008432990334054535,0.007828112003353427,0.8781890203176548,0.9723796017341969,0.2639587922331992
2024-04-01,sh.600015,2024-04-02,2024-04-09,0.5,1,0,-0.0013361196940010478,0.006726148821977752,-0.0013361196940010478,5.893616353229733,5.885741776352295,-0.0013361196940010478,-0.001935138316597751,1.3766181833750488,0.9543639781977353,0.06770369889699228
2024-04-02,sh.600015,2024-04-03,2024-04-10,0.5,1,1,0.004388550800026536,0.007606120091355007,0.004388550800026536,5.875786633911092,5.901572822045132,0.004388550800026536,0.0037860984052651148,0.9089659709964703,0.9784920725744582,0.2093189771481476
2024-04-03,sh.600015,2024-04-08,2024-04-11,0.5,1,1,0.0016960946709116964,0.0031771845062727256,0.0016960946709116964,5.874050383938904,5.884013329492772,0.0016960946709116964,0.0010952572653311066,0.9383348620550945,0.9332950731352818,0.27740326891338196
2024-04-08,sh.600015,2024-04-09,2024-04-12,0.5,1,1,0.00634173258010895,0.005348337471972624,0.00634173258010895,5.885741776352295,5.923067576734503,0.00634173258010895,0.0057381086277468185,1.4837709282017406,0.9265542019725043,0.26467203701146425
2024-04-09,sh.600015,2024-04-10,2024-04-15,0.5,1,1,0.0012675399378878627,0.0066420547631838136,0.0012675399378878627,5.901572822045132,5.9090533012944295,0.0012675399378878627,0.0006669595880304247,0.9425115148500258,0.9313875887938445,0.17439044280507796
2024-04-10,sh.600015,2024-04-11,2024-04-16,0.5,1,1,0.011970458573449028,0.006342155291055091,0.011970458573449028,5.884013329492772,5.9544476673001,0.011970458573449028,0.011363458398357507,1.1848809667627598,0.9867517296729759,0.12414205755975534
2024-04-11,sh.600015,2024-04-12,2024-04-17,0.5,1,1,0.0005518641162265414,0.0046541627541657115,0.0005518641162265414,5.923067576734503,5.926336305189089,0.0005518641162265414,-4.8286956921050894e-05,1.0590490764742444,0.9850905435664177,0.15929060985870377
2024-04-12,sh.600015,2024-04-15,2024-04-18,0.5,1,1,0.0352023324264823,0.007645005737231408,0.0352023324264823,5.9090533012944295,6.117065759933435,0.0352023324264823,0.03458139730756238,0.7635896498816956,0.9877329355704813,0.217492177429658
2024-04-15,sh.600015,2024-04-16,2024-04-19,0.5,1,1,0.028782806468885536,0.008761132225075694,0.028782806468885536,5.9544476673001,6.125833382138134,0.028782806468885536,0.0281657219103717,0.7513938269371132,0.9816870756269226,0.13530588540313648
2024-04-16,sh.600015,2024-04-17,2024-04-22,0.5,1,1,0.042245065319884034,0.011509660809479459,0.042245065319884034,5.926336305189089,6.176694769510445,0.042245065319884034,0.04161990582853958,0.9840707458234221,1.039675551861286,0.26735579057333086
2024-04-17,sh.600015,2024-04-18,2024-04-23,0.5,1,0,-0.004558073505240845,0.011295537144247345,-0.004558073505240845,6.117065759933435,6.089183724564261,-0.004558073505240845,-0.005155159535328635,0.9325262578678403,1.0815063764258848,0.19206786920762411
2024-04-18,sh.600015,2024-04-19,2024-04-24,0.5,1,0,-0.00970755039736848,0.008438670905399608,-0.00970755039736848,6.125833382138134,6.066366545856136,-0.00970755039736848,-0.010301547667948885,0.6704917577611026,0.990353147560843,0.2877664813289314
2024-04-19,sh.600015,2024-04-22,2024-04-25,0.5,1,0,-0.012429478374906155,0.0073963843065884445,-0.012429478374906155,6.176694769510445,6.099921675445406,-0.012429478374906155,-0.013021842978500064,0.8791151518992543,0.991617385675427,0.3980795097827365
2024-04-22,sh.600015,2024-04-23,2024-04-26,0.5,1,1,0.004984910358293071,0.004466477463797275,0.004984910358293071,6.089183724564261,6.119537759587396,0.004984910358293071,0.004382100255108989,0.9615887581199923,0.9001236452368514,0.5032868252889
2024-04-23,sh.600015,2024-04-24,2024-04-29,0.5,1,0,-0.0020903317642362307,0.004475897751325978,-0.0020903317642362307,6.066366545856136,6.05368582717283,-0.0020903317642362307,-0.002688897995308359,1.1064733541754679,0.9107433832394867,0.5838956637009889
2024-04-24,sh.600015,2024-04-25,2024-04-30,0.5,1,0,-0.010195786098310733,0.006621194261530983,-0.010195786098310733,6.099921675445406,6.0377281788271056,-0.010195786098310733,-0.010789490515326627,1.1158688837848483,0.8442452692155495,0.7134556564355077
2024-03-18,sh.600016,2024-03-19,2024-03-22,0.5,1,0,-0.005217455588948927,0.009100645786676121,-0.005217455588948927,3.4650236967176373,3.4469450894663525,-0.005217455588948927,-0.005814146108439555,-0.5831454988549394,1.0301589217499891,0.8262881537750427
2024-03-19,sh.600016,2024-03-20,2024-03-25,0.5,1,1,0.0031159020946214255,0.005034667354333563,0.0031159020946214255,3.431004051027612,3.4416947237378666,0.0031159020946214255,0.0025142130600750434,-0.5294601459546576,1.0679326944965326,0.8804935876341761
2024-03-20,sh.600016,2024-03-21,2024-03-26,0.5,1,1,0.005703324524094278,0.0052379618139092934,0.005703324524094278,3.454918053271198,3.474622572134161,0.005703324524094278,0.005100083501686559,-0.2900014447686587,1.0518436683126675,0.8854099165643979
2024-03-21,sh.600016,2024-03-22,2024-03-27,0.5,1,1,0.022191982056345205,0.001461646251112266,0.022191982056345205,3.4469450894663525,3.5234396330420195,0.022191982056345205,0.021578850806486694,0.010869365610691841,1.0517006807217029,0.8854907021931724
2024-03-22,sh.600016,2024-03-25,2024-03-28,0.5,1,1,0.028262281233598197,0.001457955225225649,0.028262281233598197,3.4416947237378666,3.538964867941366,0.028262281233598197,0.02764550889655948,0.5749305684605128,1.0771710820909648,0.9185681628875214
2024-03-25,sh.600016,2024-03-26,2024-03-29,0.5,1,1,0.026990695256261077,0.00524247382070415,0.026990695256261077,3.474622572134161,3.568405051110187,0.026990695256261077,0.026374685641991746,0.5666719483005821,1.0968281575127956,0.979305809858415
2024-03-26,sh.600016,2024-03-27,2024-04-01,0.5,1,1,0.0019321217224788079,0.006266015831913471,0.0019321217224788079,3.5234396330420195,3.5302473472958646,0.0019321217224788079,0.0013311427431392797,0.5790135098011963,1.0997387931724691,1.0173437278222437
2024-03-27,sh.600016,2024-03-28,2024-04-02,0.5,1,0,-0.0011313359002594892,0.008985086211991369,-0.0011313359002594892,3.538964867941366,3.534961109937506,-0.0011313359002594892,-0.0017304773562822895,1.1491238644275492,1.0547351165613459,0.9972653728686875
2024-03-28,sh.600016,2024-03-29,2024-04-03,0.5,1,0,-0.009490552326120616,0.01005895586344514,-0.009490552326120616,3.568405051110187,3.5345389162528233,-0.009490552326120616,-0.01008467975649563,1.0627293457635907,1.0322348365500003,0.9771739890956793
2024-03-29,sh.600016,2024-04-01,2024-04-08,0.5,1,0,-0.003713545752614289,0.002856372249394834,-0.003713545752614289,3.5302473472958646,3.5171376122546327,-0.003713545752614289,-0.004311138347384169,0.5786752645709737,0.9556059651954267,1.0790788777437594
2024-04-01,sh.600016,2024-04-02,2024-04-09,0.5,1,0,-0.012184935184023415,0.008942640794025456,-0.012184935184023415,3.534961109937506,3.4918878379358618,-0.012184935184023415,-0.012777446469527165,0.28885110163025657,0.859300440436041,1.1397865664827278
2024-04-02,sh.600016,2024-04-03,2024-04-10,0.5,1,0,-0.01332627492595595,0.010016184779451908,-0.01332627492595595,3.5345389162528233,3.4874366789193347,-0.01332627492595595,-0.013918101612994116,0.5500896555666323,0.8659062826780799,1.1002419480122971
2024-04-03,sh.600016,2024-04-08,2024-04-11,0.5,1,0,-0.020685654938658926,0.00938918635805154,-0.020685654938658926,3.5171376122546327,3.444383317236734,-0.020685654938658926,-0.021273067321980643,0.12319819836346264,0.80760789945833,0.9825611317085204
2024-04-08,sh.600016,2024-04-09,2024-04-12,0.5,1,0,-0.01141694723405362,0.001428213105590937,-0.01141694723405362,3.4918878379358618,3.4520211387439033,-0.01141694723405362,-0.012009919174130967,-0.11433146660994967,0.8375845539898094,0.9722466145214134
2024-04-09,sh.600016,2024-04-10,2024-04-15,0.5,1,0,-0.021286227169382665,0.0024844452110721906,-0.021286227169382665,3.4874366789193347,3.413202309533999,-0.021286227169382665,-0.021873279317436545,-0.49448049440811603,0.7896249384523975,0.9820491913476037
2024-04-10,sh.600016,2024-04-11,2024-04-16,0.5,1,1,0.004534480899743398,0.0028907054293303537,0.004534480899743398,3.444383317236734,3.4600018076011434,0.004534480899743398,0.0039319409731817245,-0.6244967995235725,0.7929269635124185,1.0335415660216758
2024-04-11,sh.600016,2024-04-12,2024-04-17,0.5,1,0,-0.0035356864329308957,0.0029289706854124637,-0.0035356864329308957,3.4520211387439033,3.439815874438452,-0.0035356864329308957,-0.004133385711287518,-1.262866600959952,0.8139899152051908,1.0000702305441729
2024-04-12,sh.600016,2024-04-15,2024-04-18,0.5,1,1,0.03850013407011543,0.014715680409918414,0.03850013407011543,3.413202309533999,3.544611056060524,0.03850013407011543,0.03787722086363554,-1.0928304395409074,0.77129530346866,1.194401172427143
2024-04-15,sh.600016,2024-04-16,2024-04-19,0.5,1,1,0.020893661015133347,0.014710221084637905,0.020893661015133347,3.4600018076011434,3.532293912481931,0.020893661015133347,0.02028130852427168,-0.8936915785994316,0.7176945575853813,1.2149398949390906
2024-04-16,sh.600016,2024-04-17,2024-04-22,0.5,1,1,0.027231677818209565,0.015411439421810084,0.027231677818209565,3.439815874438452,3.5334878320861502,0.027231677818209565,0.026615523657766982,-0.6118118645303101,0.7408996690450934,1.2275402881400517
2024-04-17,sh.600016,2024-04-18,2024-04-23,0.5,1,0,-0.01787570139036576,0.013909576610287841,-0.01787570139036576,3.544611056060524,3.4812486472783792,-0.01787570139036576,-0.01846479924017652,-0.27420843107304244,0.7280130507799797,1.2057563709244186
2024-04-18,sh.600016,2024-04-19,2024-04-24,0.5,1,0,-0.02189438199777527,0.013833512086278157,-0.02189438199777527,3.532293912481931,3.4549565202346137,-0.02189438199777527,-0.022481069362367045,0.7343444559709562,0.8278985972291262,1.2358139496689524
2024-04-19,sh.600016,2024-04-22,2024-04-25,0.5,1,0,-0.022622534555566176,0.009382327700144083,-0.022622534555566176,3.5334878320861502,3.453551381504086,-0.022622534555566176,-0.023208785159651524,0.4558650866791257,0.8704989558560852,1.214650267012163
2024-04-22,sh.600016,2024-04-23,2024-04-26,0.5,1,0,-0.0040589057088136204,0.0014284378731120979,-0.0040589057088136204,3.4812486472783792,3.467118587271137,-0.0040589057088136204,-0.0046562911497559645,0.29672053689688094,0.9005492041159048,1.0495385541058742
2024-04-23,sh.600016,2024-04-24,2024-04-29,0.5,1,0,-0.0036278068352150195,0.006604267828310261,-0.0036278068352150195,3.4549565202346137,3.4424226053561324,-0.0036278068352150195,-0.004225450857906932,0.4764724738267946,0.9423139232041208,1.007340671104954
2024-04-24,sh.600016,2024-04-25,2024-04-30,0.5,1,1,0.005532517321637398,0.005797099349593075,0.005532517321637398,3.453551381504086,3.4726582143444276,0.005532517321637398,0.004929378752815072,0.21760109582066284,0.9630106801893892,1.0091484039898115
2024-03-18,sh.600018,2024-03-19,2024-03-22,0.5,1,0,-0.00750191142736123,0.004763953712207481,-0.00750191142736123,4.958694523595939,4.921494836485574,-0.00750191142736123,-0.008097231684427442,-1.0868194831254712,0.8559407063478419,-1.6455452213817252
2024-03-19,sh.600018,2024-03-20,2024-03-25,0.5,1,1,0.0015291411738214133,0.006091372890198479,0.0015291411738214133,4.9382425953249,4.945793865404732,0.0015291411738214133,0.0009284039102963604,-1.0181323392187107,0.8851885427033682,-1.4419231538270536
2024-03-20,sh.600018,2024-03-21,2024-03-26,0.5,1,0,-0.0018192620432027073,0.006095102089803364,-0.0018192620432027073,4.96920872661429,4.960168433794207,-0.0018192620432027073,-0.0024179908673295225,-0.734818426386565,0.9007482341014592,-1.5797760120909854
2024-03-21,sh.600018,2024-03-22,2024-03-27,0.5,1,1,0.014568692474487444,0.006102916228656324,0.014568692474487444,4.921494836485574,4.993194581274125,0.014568692474487444,0.013960133826597332,-0.6954401343077655,0.9410323690999294,-1.6010125706643816
2024-03-22,sh.600018,2024-03-25,2024-03-28,0.5,1,0,-0.00039207181089595533,0.008299018692345813,-0.00039207181089595533,4.945793865404732,4.943854759048604,-0.00039207181089595533,-0.0009916566923448,-0.6129840981272072,0.9001307990051999,-1.7135401949175268
2024-03-25,sh.600018,2024-03-26,2024-03-29,0.5,1,1,0.010598343449822023,0.0076979188042291475,0.010598343449822023,4.960168433794207,5.012738002425534,0.010598343449822023,0.00999216629689803,0.4287697016602532,0.8297472480268888,-1.614430997580973
2024-03-26,sh.600018,2024-03-27,2024-04-01,0.5,1,1,0.009537265033298992,0.006128096734150445,0.009537265033298992,4.993194581274125,5.040816001359578,0.009537265033298992,0.008931724336488145,0.1208142284859065,0.8474752686962874,-1.2143802720670747
2024-03-27,sh.600018,2024-03-28,2024-04-02,0.5,1,1,0.03588068524454169,0.003941116285541066,0.03588068524454169,4.943854759048604,5.121243655553792,0.03588068524454169,0.03525934323599755,0.3481413799709759,0.8789371904981996,-1.0424786369896828
2024-03-28,sh.600018,2024-03-29,2024-04-03,0.5,1,1,0.0404991495362681,0.006618989849916913,0.0404991495362681,5.012738002425534,5.21574962837294,0.0404991495362681,0.039875037280223236,0.5450017676986977,0.8479117356381309,-1.1103224676341836
2024-03-29,sh.600018,2024-04-01,2024-04-08,0.5,1,1,0.04584948739720529,0.003271168508035219,0.04584948739720529,5.040816001359578,5.271934831086591,0.04584948739720529,0.04522216590121597,0.7745718341208024,0.8560261639173972,-1.2680525139690086
2024-04-01,sh.600018,2024-04-02,2024-04-09,0.5,1,1,0.025235035165598108,0.0038689952304240983,0.025235035165598108,5.121243655553792,5.250478419294314,0.025235035165598108,0.024620078631458986,1.0978185114625778,0.8612944190377038,-1.336430382042928
2024-04-02,sh.600018,2024-04-03,2024-04-10,0.5,1,1,0.016060618849720987,0.007261851113217158,0.016060618849720987,5.21574962837294,5.299517795170828,0.016060618849720987,0.015451165314471771,1.186436647752921,0.8460195249540373,-1.4055986365928623
2024-04-03,sh.600018,2024-04-08,2024-04-11,0.5,1,0,-0.004393397612424743,0.01019406449168891,-0.004393397612424743,5.271934831086591,5.248773125187832,-0.004393397612424743,-0.004990582418415324,1.3617719465368632,0.8002666208101756,-1.5534292507981147
2024-04-08,sh.600018,2024-04-09,2024-04-12,0.5,1,1,0.010466395585688737,0.010411341049289164,0.010466395585688737,5.250478419294314,5.30543200344578,0.010466395585688737,0.00986029757773954,0.9927305082692304,0.7912355478762844,-1.5693276346108926
2024-04-09,sh.600018,2024-04-10,2024-04-15,0.5,1,1,0.009044708467168983,0.0031040337053202297,0.009044708467168983,5.299517795170828,5.347450388645731,0.009044708467168983,0.008439463215664356,1.264378529093853,0.8547430147684676,-1.7409389698797273
2024-04-10,sh.600018,2024-04-11,2024-04-16,0.5,1,1,0.028074943692425913,0.0031040337053202297,0.028074943692425913,5.248773125187832,5.396132135132826,0.028074943692425913,0.027458283724201005,1.0290410527046834,0.8387325387821474,-1.6013643938387685
2024-04-11,sh.600018,2024-04-12,2024-04-17,0.5,1,1,0.010690864754497209,0.0030874345945966037,0.010690864754497209,5.30543200344578,5.362151659459811,0.010690864754497209,0.010084632105439306,0.7273500512042815,0.7676154231619456,-1.4934577969065423
2024-04-12,sh.600018,2024-04-15,2024-04-18,0.5,1,1,0.030485496885203522,0.009094902832012098,0.030485496885203522,5.347450388645731,5.510470070813602,0.030485496885203522,0.029867391018832734,0.9927633840212681,0.8148962746586811,-1.5734946647909605
2024-04-15,sh.600018,2024-04-16,2024-04-19,0.5,1,1,0.011094907360113204,0.01322949346912984,0.011094907360113204,5.396132135132826,5.456001721276066,0.011094907360113204,0.010488432358197741,0.6343141308515787,0.816295904977345,-1.7199872506715934
2024-04-16,sh.600018,2024-04-17,2024-04-22,0.5,1,1,0.016238399474988174,0.016322233216655636,0.016238399474988174,5.362151659459811,5.449224420152607,0.016238399474988174,0.015628839303355013,0.4914140078237526,0.7828393438056315,-1.8217156019098302
2024-04-17,sh.600018,2024-04-18,2024-04-23,0.5,1,0,-0.03569903640399419,0.016703106702111396,-0.03569903640399419,5.510470070813602,5.313751599153471,-0.03569903640399419,-0.03627744346003481,0.8438767253557924,0.7499049235748455,-2.0383710274512223
2024-04-18,sh.600018,2024-04-19,2024-04-24,0.5,1,0,-0.034195714495532714,0.014030249090503542,-0.034195714495532714,5.456001721276066,5.2694298441291405,-0.034195714495532714,-0.034775023274201566,0.3637023641743958,0.6229630433056801,-2.0357692784277277
2024-04-19,sh.600018,2024-04-22,2024-04-25,0.5,1,0,-0.01633901800959192,0.010406081792739942,-0.01633901800959192,5.449224420152607,5.360189444214409,-0.01633901800959192,-0.01692903759291109,0.6892967884494988,0.5876373187577806,-1.998432388649341
2024-04-22,sh.600018,2024-04-23,2024-04-26,0.5,1,0,-0.0033600042088195448,0.012576525496736176,-0.0033600042088195448,5.313751599153471,5.29589737141669,-0.0033600042088195448,-0.003957808864897272,0.2630145024334621,0.506951585842567,-2.138405602454397
2024-04-23,sh.600018,2024-04-24,2024-04-29,0.5,1,0,-0.0008750581971258553,0.015741582046668555,-0.0008750581971258553,5.2694298441291405,5.264818786350855,-0.0008750581971258553,-0.0014743533736545356,0.09902362685263327,0.4031136117076723,-2.175103900532919
2024-04-24,sh.600018,2024-04-25,2024-04-30,0.5,1,0,-0.006102612526612594,0.015343511045405807,-0.006102612526612594,5.360189444214409,5.327478284968124,-0.006102612526612594,-0.006698772111221052,0.0867273958959329,0.39201666450902745,-2.1583001748413104
2024-03-18,sh.600019,2024-03-19,2024-03-22,0.5,1,0,-0.012842232251913166,0.008761139176750376,-0.012842232251913166,6.100902620539987,6.022553412141694,-0.012842232251913166,-0.013434349277454127,-0.4090309448834909,0.01646826191106008,0.8485450134051723
2024-03-19,sh.600019,2024-03-20,2024-03-25,0.5,1,0,-0.011539965211728842,0.007786816673684779,-0.011539965211728842,6.067209093703714,5.997193711831077,-0.011539965211728842,-0.012132863363156221,-0.22478789211391706,0.006385675640345771,0.9743672555226874
2024-03-20,sh.600019,2024-03-21,2024-03-26,0.5,1,0,-0.017135520966146456,0.0026204935085602427,-0.017135520966146456,6.076128236368071,5.972010613581774,-0.017135520966146456,-0.017725062791019153,-0.21349696051795977,0.07258133533189728,0.9709970305128023
2024-03-21,sh.600019,2024-03-22,2024-03-27,0.5,1,0,-0.005415143614214468,0.003851759174346888,-0.005415143614214468,6.022553412141694,5.989940420491664,-0.005415143614214468,-0.006011715556463071,-0.43245688534133125,0.1145160141490951,1.0361965293600377
2024-03-22,sh.600019,2024-03-25,2024-03-28,0.5,1,0,-0.0022217098378473077,0.005515803969802468,-0.0022217098378473077,5.997193711831077,5.983869687563024,-0.0022217098378473077,-0.002820197265716029,-0.8408757897459028,0.07497101312175954,0.9229459682727442
2024-03-25,sh.600019,2024-03-26,2024-03-29,0.5,1,1,0.014219494573868507,0.005793887147253622,0.014219494573868507,5.972010613581774,6.0569295860976995,0.014219494573868507,0.013611145381881906,-0.9748076256178168,0.07867330362859526,0.8662225045399721
2024-03-26,sh.600019,2024-03-27,2024-04-01,0.5,1,1,0.019305030092235054,0.0015408326608863628,0.019305030092235054,5.989940420491664,6.10557640056097,0.019305030092235054,0.018693630494059255,-0.9659401810356428,0.0703960468167012,1.0210813117083852
2024-03-27,sh.600019,2024-03-28,2024-04-02,0.5,1,1,0.03634276232527589,0.004696991163778643,0.03634276232527589,5.983869687563024,6.2013400414045865,0.03634276232527589,0.035721143153632395,-0.6852682126313222,0.22432707455447268,1.1098366245985538
2024-03-28,sh.600019,2024-03-29,2024-04-03,0.5,1,1,0.022478133049652183,0.01670369677465473,0.022478133049652183,6.0569295860976995,6.1930780552074,0.022478133049652183,0.021864830160688964,-1.0595621307354335,0.2894743682075817,1.1127063159419026
2024-03-29,sh.600019,2024-04-01,2024-04-08,0.5,1,1,0.015194229438192819,0.01753249736508201,0.015194229438192819,6.10557640056097,6.198345929244524,0.015194229438192819,0.01458529558068733,-0.6680516888012162,0.30412870026207367,0.9631337846453618
2024-04-01,sh.600019,2024-04-02,2024-04-09,0.5,1,0,-0.011316536120784204,0.014023367531543662,-0.011316536120784204,6.2013400414045865,6.1311623528297545,-0.011316536120784204,-0.011909568289461103,-0.6864071685283143,0.4144108821447948,1.011512150712192
2024-04-02,sh.600019,2024-04-03,2024-04-10,0.5,1,0,-0.01003868969016486,0.0065646867413402185,-0.01003868969016486,6.1930780552074,6.130907666385194,-0.01003868969016486,-0.010632488336756674,-0.5503069474676676,0.38244588343448893,0.9916524085117201
2024-04-03,sh.600019,2024-04-08,2024-04-11,0.5,1,0,-0.018021506772465945,0.0062586244523891756,-0.018021506772465945,6.198345929244524,6.086642396103539,-0.018021506772465945,-0.0186105171652845,-0.9660065396584951,0.40464104209655744,1.0144670157621907
2024-04-08,sh.600019,2024-04-09,2024-04-12,0.5,1,1,0.013367802192286726,0.008226677400549394,0.013367802192286726,6.1311623528297545,6.213122518372191,0.013367802192286726,0.012759963862470247,-0.6127290231795829,0.4543398140145348,1.114600072089008
2024-04-09,sh.600019,2024-04-10,2024-04-15,0.5,1,1,0.01917932738895156,0.008313773604984549,0.01917932738895156,6.130907666385194,6.248494351711248,0.01917932738895156,0.018568003189778137,-0.9198716106281919,0.35384153825858977,1.0902108852414756
2024-04-10,sh.600019,2024-04-11,2024-04-16,0.5,1,1,0.0575626718905613,0.009020143602705847,0.0575626718905613,6.086642396103539,6.437005795266685,0.0575626718905613,0.056928324591616786,0.14778751735381232,0.3768709573225476,1.2010760300246037
2024-04-11,sh.600019,2024-04-12,2024-04-17,0.5,1,1,0.03758103796325596,0.004331362167814351,0.03758103796325596,6.213122518372191,6.446618111606535,0.03758103796325596,0.03695867604905234,0.3080961412090583,0.2497261933414033,1.2920731160295553
2024-04-12,sh.600019,2024-04-15,2024-04-18,0.5,1,1,0.07885096312620754,0.009374415845744312,0.07885096312620754,6.248494351711248,6.741194149433426,0.07885096312620754,0.07820384668326485,0.915523327722436,0.2714888608664403,1.3102763688161116
2024-04-15,sh.600019,2024-04-16,2024-04-19,0.5,1,1,0.05379796752262478,0.008157890532554356,0.05379796752262478,6.437005795266685,6.783303623984444,0.05379796752262478,0.05316587836885733,0.6805187220942314,0.24575532715949092,1.282729362086068
2024-04-16,sh.600019,2024-04-17,2024-04-22,0.5,1,1,0.055328010271042505,0.007801358017152537,0.055328010271042505,6.446618111606535,6.803296664700045,0.055328010271042505,0.05469500336695132,0.8707280355755762,0.23939326616808185,1.1819481149944353
2024-04-17,sh.600019,2024-04-18,2024-04-23,0.5,1,0,-0.022726118520381755,0.010077923094907602,-0.022726118520381755,6.741194149433426,6.587992972225475,-0.022726118520381755,-0.02331230699272757,0.7856549998376214,0.04739164348737156,1.2129324948741809
2024-04-18,sh.600019,2024-04-19,2024-04-24,0.5,1,0,-0.04616111806788992,0.01137008911804125,-0.04616111806788992,6.783303623984444,6.470178744508306,-0.04616111806788992,-0.04673324975754223,0.8499395621718485,0.0732451883170946,1.1322068055908585
2024-04-19,sh.600019,2024-04-22,2024-04-25,0.5,1,0,-0.03786827396848125,0.012273252836318926,-0.03786827396848125,6.803296664700045,6.545667562713291,-0.03786827396848125,-0.03844537987232888,1.033025888265445,-0.02364165691842217,1.1070921667173665
2024-04-22,sh.600019,2024-04-23,2024-04-26,0.5,1,0,-0.008814062043216664,0.021988480491514972,-0.008814062043216664,6.587992972225475,6.5299259934289955,-0.008814062043216664,-0.009408595246029772,0.546429935291535,-0.057341889864347274,1.0896020973387022
2024-04-23,sh.600019,2024-04-24,2024-04-29,0.5,1,0,-0.011067346998880012,0.020114480178278205,-0.011067346998880012,6.470178744508306,6.398571031199044,-0.011067346998880012,-0.011660528636189493,-0.3036782924750306,-0.32144077019704054,1.0141435191443524
2024-04-24,sh.600019,2024-04-25,2024-04-30,0.5,1,0,-0.00727493386723832,0.023102367092862112,-0.00727493386723832,6.545667562713291,6.4980482640786175,-0.00727493386723832,-0.00787039026999703,-0.7177285144223458,-0.23625847821803228,0.9659538134904511
2024-03-18,sh.600023,2024-03-19,2024-03-22,0.5,1,0,-0.01858534499770559,0.031244439626200212,-0.01858534499770559,5.650760010630434,5.5457386863346105,-0.01858534499770559,-0.01917401718904943,1.002759817345063,-1.7017783159282622,-1.443985800557788
2024-03-19,sh.600023,2024-03-20,2024-03-25,0.5,1,1,0.03672380745898951,0.03074548427284989,0.03672380745898951,5.492909710490931,5.69463026908965,0.03672380745898951,0.03610195972883323,0.40473482168921837,-1.7352425366381234,-1.6404855480517664
2024-03-20,sh.600023,2024-03-21,2024-03-26,0.5,1,1,0.019482529263084913,0.012137716674938133,0.019482529263084913,5.535544458895179,5.643390865803732,0.019482529263084913,0.018871023197347014,0.8889386813456873,-1.6947608190661594,-1.5335190776363865
2024-03-21,sh.600023,2024-03-22,2024-03-27,0.5,1,1,0.048906450248711986,0.0025106137076971857,0.048906450248711986,5.5457386863346105,5.81696107949124,0.048906450248711986,0.04827729512509982,0.7670098349882598,-1.6537760066762839,-1.6048407952133101
2024-03-22,sh.600023,2024-03-25,2024-03-28,0.5,1,1,0.01828856297356607,0.013985781168874813,0.01828856297356607,5.69463026908965,5.79877687337809,0.01828856297356607,0.0176777730727522,0.6344441731062939,-1.5734736779366398,-1.5624950059547191
2024-03-25,sh.600023,2024-03-26,2024-03-29,0.5,1,1,0.06368578735962305,0.011418904327605195,0.06368578735962305,5.643390865803732,6.002794656471611,0.06368578735962305,0.06304776729322725,1.089344647333372,-1.616643542030104,-1.7384604952251472
2024-03-26,sh.600023,2024-03-27,2024-04-01,0.5,1,1,0.042742045971361664,0.002884801257668313,0.042742045971361664,5.81696107949124,6.06558989736552,0.042742045971361664,0.04211658838105614,1.3081240878917364,-1.5688092672443388,-1.9546050135891293
2024-03-27,sh.600023,2024-03-28,2024-04-02,0.5,1,1,0.04762553636372413,0.005296954701216931,0.04762553636372413,5.79877687337809,6.074946732227328,0.04762553636372413,0.04699714955794776,0.7322506605121181,-1.6685709506831046,-2.0487331091290235
2024-03-28,sh.600023,2024-03-29,2024-04-03,0.5,1,1,1.9971687397868365e-05,0.007641294784312004,1.9971687397868365e-05,6.002794656471611,6.002914542411004,1.9971687397868365e-05,-0.0005798603460044349,1.0304303088002715,-1.7203641330585921,-2.0676389357788545
2024-03-29,sh.600023,2024-04-01,2024-04-08,0.5,1,1,0.01427127317706356,0.019158807463572333,0.01427127317706356,6.06558989736552,6.152153587771875,0.01427127317706356,0.01366289292723244,1.146688081581047,-1.7642434642596077,-1.9436535716472167
2024-04-01,sh.600023,2024-04-02,2024-04-09,0.5,1,0,-0.0013442868615742842,0.019072410854954643,-0.0013442868615742842,6.074946732227328,6.06678026115143,-0.0013442868615742842,-0.0019433005853400909,0.10748396524744812,-1.7677764922147001,-1.8880752772798135
2024-04-02,sh.600023,2024-04-03,2024-04-10,0.5,1,1,0.01617566380828306,0.01311549683798146,0.01617566380828306,6.002914542411004,6.100015669919913,0.01617566380828306,0.015566141266760702,0.23646245707370597,-1.7258138994173298,-1.8588164419340403
2024-04-03,sh.600023,2024-04-08,2024-04-11,0.5,1,0,-0.018216684367377223,0.007120301796080506,-0.018216684367377223,6.152153587771875,6.0400817476847894,-0.018216684367377223,-0.018805577688760233,0.8577260108231233,-1.6122857284327505,-1.8129774059670092
2024-04-08,sh.600023,2024-04-09,2024-04-12,0.5,1,1,0.0048496251279652736,0.007115713237015144,0.0048496251279652736,6.06678026115143,6.096201871152759,0.0048496251279652736,0.004246896171575587,-0.4067643787643126,-1.6296486869263944,-1.6728481248667006
2024-04-09,sh.600023,2024-04-10,2024-04-15,0.5,1,0,-0.013829134884934868,0.004574406788343027,-0.013829134884934868,6.100015669919913,6.015657730421361,-0.013829134884934868,-0.014420659946485226,-0.2646753714456899,-1.5252022645365992,-1.4853695984675641
2024-04-10,sh.600023,2024-04-11,2024-04-16,0.5,1,1,0.00961954633565476,0.011366878541685879,0.00961954633565476,6.0400817476847894,6.098184593928796,0.00961954633565476,0.009013956284868785,-0.7911744541108374,-1.6031985840123681,-1.5774733053753243
2024-04-11,sh.600023,2024-04-12,2024-04-17,0.5,1,0,-0.01979730259926349,0.013023376528943195,-0.01979730259926349,6.096201871152759,5.975513518004331,-0.01979730259926349,-0.020385247834133313,-0.25994694233118426,-1.6954038958861948,-1.5539077717880059
2024-04-12,sh.600023,2024-04-15,2024-04-18,0.5,1,1,0.017015457822123325,0.01344751535400168,0.017015457822123325,6.015657730421361,6.118016900806692,0.017015457822123325,0.016405431555310157,-0.3238525488100735,-1.7545890111985463,-1.3661865157725788
2024-04-15,sh.600023,2024-04-16,2024-04-19,0.5,1,0,-0.035488021790528346,0.018231463048745605,-0.035488021790528346,6.098184593928796,5.881772086177751,-0.035488021790528346,-0.03606655541736592,-0.1684105741995119,-1.7176165056814934,-1.0469007060778712
2024-04-16,sh.600023,2024-04-17,2024-04-22,0.5,1,0,-0.0008128609610983384,0.01887288418646275,-0.0008128609610983384,5.975513518004331,5.9706562563440295,-0.0008128609610983384,-0.0014121934447763884,-0.5809599400161599,-1.6820142744037474,-1.0648997813709558
2024-04-17,sh.600023,2024-04-18,2024-04-23,0.5,1,0,-0.057932621542103546,0.022121295138245088,-0.057932621542103546,6.118016900806692,5.763584143105007,-0.057932621542103546,-0.05849769244790648,-0.9151266709829899,-1.7030817263248132,-0.6738123867040494
2024-04-18,sh.600023,2024-04-19,2024-04-24,0.5,1,0,-0.013625203781178596,0.02523753635539618,-0.013625203781178596,5.881772086177751,5.801631742910118,-0.013625203781178596,-0.014216851164694622,-1.884985124127863,-1.7604622995848538,-0.6427624391887425
2024-04-19,sh.600023,2024-04-22,2024-04-25,0.5,1,0,-0.02663441925081156,0.02308415716717457,-0.02663441925081156,5.9706562563440295,5.811631294411055,-0.02663441925081156,-0.027218263446002422,-1.4091656959335226,-1.7057546289055974,-0.7776959134440989
2024-04-22,sh.600023,2024-04-23,2024-04-26,0.5,1,1,0.003865545482501842,0.022839766381966164,0.003865545482501842,5.763584143105007,5.785863539753409,0.003865545482501842,0.0032634067968180247,-1.3033454364003896,-1.6011549886238323,-0.6514528599009854
2024-04-23,sh.600023,2024-04-24,2024-04-29,0.5,1,0,-0.029182935301320656,0.03305577168469622,-0.029182935301320656,5.801631742910118,5.632323099115655,-0.029182935301320656,-0.029765250845476432,-1.5849291270475148,-1.6268157820582632,-0.7791260440741095
2024-04-24,sh.600023,2024-04-25,2024-04-30,0.5,1,0,-0.05123231998872224,0.03313575581510007,-0.05123231998872224,5.811631294411055,5.513887940280265,-0.05123231998872224,-0.05180140986976445,-1.3988050389883282,-1.5265528158643253,-0.7098155619912768
2024-03-18,sh.600025,2024-03-19,2024-03-22,0.5,1,0,-0.009964785460843117,0.005825016405282535,-0.009964785460843117,9.137773465407196,9.046717513235619,-0.009964785460843117,-0.010558628436673656,-1.0814540392427745,-0.31193928671544435,-0.9292130806709115
2024-03-19,sh.600025,2024-03-20,2024-03-25,0.5,1,1,0.0003896386254382822,0.004615651336967941,0.0003896386254382822,8.991776965793711,8.995280509411911,0.0003896386254382822,-0.00021041514160669017,-0.9219507610322475,-0.23313834509841674,-0.8030402498054722
2024-03-20,sh.600025,2024-03-21,2024-03-26,0.5,1,0,-0.013658002515517631,0.0038272543597091084,-0.013658002515517631,9.045991215987804,8.92244104520548,-0.013658002515517631,-0.014249630225695253,-0.8257162617632253,-0.2769457094008057,-0.7677758902314044
2024-03-21,sh.600025,2024-03-22,2024-03-27,0.5,1,0,-0.0030853455792659856,0.0075413624917245806,-0.0030853455792659856,9.046717513235619,9.018805263350286,-0.0030853455792659856,-0.0036833149810977517,-0.6364516485925411,-0.24382534128978228,-0.5424916423028593
2024-03-22,sh.600025,2024-03-25,2024-03-28,0.5,1,0,-0.0029600209505374897,0.006227747397193164,-0.0029600209505374897,8.995280509411911,8.968654290649088,-0.0029600209505374897,-0.003558065524594811,-1.129365122550749,-0.05174955971458048,-0.48831649998194976
2024-03-25,sh.600025,2024-03-26,2024-03-29,0.5,1,1,0.023513676962410912,0.007079893099581385,0.023513676962410912,8.92244104520548,9.13224044165962,0.023513676962410912,0.022899752933442263,-1.2580157219772836,0.05084024704445606,-0.3385678837894583
2024-03-26,sh.600025,2024-03-27,2024-04-01,0.5,1,1,0.010311341374020122,0.005915478263379546,0.010311341374020122,9.018805263350286,9.11180124320751,0.010311341374020122,0.009705336370696704,-1.1492359602972815,0.0703302296185042,-0.33549397855240964
2024-03-27,sh.600025,2024-03-28,2024-04-02,0.5,1,1,0.025129542065603028,0.006698520800646156,0.025129542065603028,8.968654290649088,9.19403246591883,0.025129542065603028,0.024514648808340755,-0.617433568641668,0.0327658185102521,-0.46537918310931076
2024-03-28,sh.600025,2024-03-29,2024-04-03,0.5,1,0,-0.005385586770050521,0.011222176597541444,-0.005385586770050521,9.13224044165962,9.083057968357092,-0.005385586770050521,-0.005982176441087117,-0.8477519527905778,0.05787511920050854,-0.37642579819717364
2024-03-29,sh.600025,2024-04-01,2024-04-08,0.5,1,1,0.011265798856930243,0.017193308437859017,0.011265798856930243,9.11180124320751,9.214452963238825,0.011265798856930243,0.010659221350868053,-0.6551924495442432,0.20997871757076195,-0.5059217754184424
2024-04-01,sh.600025,2024-04-02,2024-04-09,0.5,1,1,0.0022206641906232782,0.016953027260252065,0.0022206641906232782,9.19403246591883,9.214449324584326,0.0022206641906232782,0.0016195121377247101,-1.2255370353054242,0.25533856464979465,-0.3015416789157257
2024-04-02,sh.600025,2024-04-03,2024-04-10,0.5,1,1,0.020422237482509376,0.008157260810190418,0.020422237482509376,9.083057968357092,9.2685543352553,0.020422237482509376,0.01981016776093636,-1.5205658116371923,0.24598434406261405,-0.22157618829761802
2024-04-03,sh.600025,2024-04-08,2024-04-11,0.5,1,1,0.012902731676927237,0.011912416471612819,0.012902731676927237,9.214452963238825,9.333344577374175,0.012902731676927237,0.012295172305732516,-1.9055308225892669,0.2961473795288388,-0.11078826831764264
2024-04-08,sh.600025,2024-04-09,2024-04-12,0.5,1,1,0.027643195716769098,0.016969713603610888,0.027643195716769098,9.214449324584326,9.469166150687089,0.027643195716769098,0.027026794719638314,-0.7538287042352932,0.3062056626293877,-0.3000962641986528
2024-04-09,sh.600025,2024-04-10,2024-04-15,0.5,1,1,0.023883776824242586,0.017285126090479296,0.023883776824242586,9.2685543352553,9.489922418482928,0.023883776824242586,0.023269630801954877,-1.3458385467876146,0.32491254310090806,-0.3464650091436299
2024-04-10,sh.600025,2024-04-11,2024-04-16,0.5,1,1,0.03255149877611907,0.014097596245159015,0.03255149877611907,9.333344577374175,9.6371589319627,0.03255149877611907,0.03193215368038227,0.88292577547647,0.2874549784477853,-0.34833729609550373
2024-04-11,sh.600025,2024-04-12,2024-04-17,0.5,1,1,0.00044237512609091034,0.004576929183400348,0.00044237512609091034,9.469166150687089,9.473355074257976,0.00044237512609091034,-0.00015771027336475285,1.0569666916868528,0.41954793795778333,-0.33688775629071327
2024-04-12,sh.600025,2024-04-15,2024-04-18,0.5,1,1,0.01485779502501261,0.005817851995478331,0.01485779502501261,9.489922418482928,9.630921740581034,0.01485779502501261,0.014249062967614856,0.9027824778834406,0.4371734524655171,-0.27860875348661746
2024-04-15,sh.600025,2024-04-16,2024-04-19,0.5,1,0,-0.010571888279839015,0.00969431420194618,-0.010571888279839015,9.6371589319627,9.535275964399927,-0.010571888279839015,-0.0111653671032238,0.8960409705240158,0.5057823596037068,-0.3727502629378855
2024-04-16,sh.600025,2024-04-17,2024-04-22,0.5,1,1,0.004541785448024527,0.009659441651669225,0.004541785448024527,9.473355074257976,9.516381020479214,0.004541785448024527,0.0039392411400482885,0.7412368815866295,0.4218714513692375,-0.2872009905689249
2024-04-17,sh.600025,2024-04-18,2024-04-23,0.5,1,0,-0.03480063962772495,0.007586215514134932,-0.03480063962772495,9.630921740581034,9.295759503805217,-0.03480063962772495,-0.035379585560168514,0.4423333561972429,0.43759822344473176,-0.15215895067465837
2024-04-18,sh.600025,2024-04-19,2024-04-24,0.5,1,0,-0.017005547009593447,0.007540060536277137,-0.017005547009593447,9.535275964399927,9.37312338073886,-0.017005547009593447,-0.017595166795451922,0.4232649837398426,0.37676394787435835,-0.3109031920120753
2024-04-19,sh.600025,2024-04-22,2024-04-25,0.5,1,0,-0.015841460223819714,0.00438595741166299,-0.015841460223819714,9.516381020479214,9.365627649069564,-0.015841460223819714,-0.016431778252276596,0.4094792153113279,0.4140604869650702,-0.28640412951821453
2024-04-22,sh.600025,2024-04-23,2024-04-26,0.5,1,1,0.002594750738377005,0.006183423986868848,0.002594750738377005,9.295759503805217,9.319879682642494,0.002594750738377005,0.001993374300865325,0.2867313062766215,0.39865995271051513,-0.3650191260551068
2024-04-23,sh.600025,2024-04-24,2024-04-29,0.5,1,0,-0.02310293325988566,0.015402310667760516,-0.02310293325988566,9.37312338073886,9.156576736837954,-0.02310293325988566,-0.023688895711194258,0.22770892556825903,0.4817953537585637,-0.29878770638163243
2024-04-24,sh.600025,2024-04-25,2024-04-30,0.5,1,0,-0.01609634624506473,0.01563561859780216,-0.01609634624506473,9.365627649069564,9.214875263628773,-0.01609634624506473,-0.01668651138777477,0.4545064520331096,0.4958897692665807,-0.513143586225822
