trade_date,entry_ts,exit_ts,hold_n,active_stocks,pool_size,avg_pred_score,strategy_ret,benchmark_pool_ret,benchmark_hs300_ret,benchmark_zz500_ret,benchmark_zz1000_ret,weighting_mode,portfolio_turnover,portfolio_concentration,portfolio_weight_entropy,timing_exposure,timing_enabled,portfolio_mode,execution_model,avg_fill_ratio,cash_drag_weight,extra_cost_bps,strategy_net,strategy_cum_return,strategy_cum_ret,benchmark_pool_net,benchmark_pool_cum_return,benchmark_pool_cum_ret,benchmark_hs300_net,benchmark_hs300_cum_return,benchmark_hs300_cum_ret,benchmark_zz500_net,benchmark_zz500_cum_return,benchmark_zz500_cum_ret,benchmark_zz1000_net,benchmark_zz1000_cum_return,benchmark_zz1000_cum_ret,excess_vs_pool_ret,excess_vs_pool_net,excess_vs_pool_cum_return,excess_vs_pool_cum_ret,excess_vs_hs300_ret,excess_vs_hs300_net,excess_vs_hs300_cum_return,excess_vs_hs300_cum_ret,excess_vs_zz500_ret,excess_vs_zz500_net,excess_vs_zz500_cum_return,excess_vs_zz500_cum_ret,excess_vs_zz1000_ret,excess_vs_zz1000_net,excess_vs_zz1000_cum_return,excess_vs_zz1000_cum_ret,benchmark_ret,benchmark_net,benchmark_cum_return,benchmark_cum_ret,excess_ret,excess_net,excess_cum_return,excess_cum_ret
2025-01-02,2025-01-03,2025-01-10,5,10,297,0.9848484848475001,0.0029985675931552868,-0.00880272783192418,-0.011306525675036871,-0.010782076876762914,-0.014273780760857169,equal_weight,0.9999999999989999,0.0999999999998,2.302585092982743,1.0,0.0,0.0,0.0,1.0,1.000088900582341e-12,0.0,1.0029985675931552,0.002998567593155199,0.002998567593155199,0.9911972721680758,-0.008802727831924151,-0.008802727831924151,0.9886934743249631,-0.011306525675036871,-0.011306525675036871,0.9892179231232371,-0.010782076876762914,-0.010782076876762914,0.9857262192391428,-0.014273780760857169,-0.014273780760857169,0.011801295425079468,1.0118012954250795,0.011801295425079461,0.011801295425079461,0.014305093268192157,1.014305093268192,0.01430509326819207,0.01430509326819207,0.0137806444699182,1.0137806444699182,0.013780644469918224,0.013780644469918224,0.017272348354012455,1.0172723483540125,0.01727234835401248,0.01727234835401248,-0.00880272783192418,0.9911972721680758,-0.008802727831924151,-0.008802727831924151,0.011801295425079468,1.0118012954250795,0.011801295425079461,0.011801295425079461
2025-01-09,2025-01-10,2025-01-17,5,10,298,0.9848993288580756,-0.027618206422411425,0.007651885935636765,0.0213964920384051,0.0406037605407501,0.053500539954076665,equal_weight,1.3999999999985997,0.0999999999998,2.302585092982743,1.0,0.0,0.0,0.0,1.0,1.000088900582341e-12,0.0,0.9752975461119845,-0.024702453888015508,-0.024702453888015508,0.9987818006344202,-0.001218199365579764,-0.001218199365579764,1.0098480463767803,0.009848046376780273,0.009848046376780273,1.029383890796351,0.029383890796351064,0.029383890796351064,1.0384631042153276,0.038463104215327615,0.038463104215327615,-0.03527009235804819,0.9761149702874441,-0.023885029712555905,-0.023885029712555905,-0.049014698460816526,0.9645892349743813,-0.035410765025618685,-0.035410765025618685,-0.06822196696316152,0.9446185348349989,-0.05538146516500109,-0.05538146516500109,-0.08111874637648808,0.9347524907320689,-0.0652475092679311,-0.0652475092679311,0.007651885935636765,0.9987818006344202,-0.001218199365579764,-0.001218199365579764,-0.03527009235804819,0.9761149702874441,-0.023885029712555905,-0.023885029712555905
2025-01-16,2025-01-17,2025-01-24,5,10,297,0.9848484848475001,0.060187650871508465,0.005523125204134633,0.005382779041654739,0.01121401522812282,0.016529454742661542,equal_weight,0.7999999999992,0.0999999999998,2.302585092982743,1.0,0.0,0.0,0.0,1.0,1.000088900582341e-12,0.0,1.0339984143132115,0.03399841431321149,0.03399841431321149,1.004298197570935,0.004298197570935081,0.004298197570935081,1.0152838352760731,0.015283835276073132,0.015283835276073132,1.0409274174233256,0.04092741742332562,0.04092741742332562,1.0556283330983787,0.05562833309837867,0.05562833309837867,0.05466452566737383,1.02947383213503,0.029473832135030076,0.029473832135030076,0.054804871829853725,1.017453424365609,0.017453424365609038,0.017453424365609038,0.048973635643385645,0.990879938781997,-0.009120061218003017,-0.009120061218003017,0.04365819612884692,0.9755620983043777,-0.02443790169562232,-0.02443790169562232,0.005523125204134633,1.004298197570935,0.004298197570935081,0.004298197570935081,0.05466452566737383,1.02947383213503,0.029473832135030076,0.029473832135030076
2025-01-23,2025-01-24,2025-02-10,5,10,298,0.9848993288580756,-0.004293554345319087,0.028883526105342422,0.01779296108601791,0.04223063920919645,0.045875890221332094,equal_weight,1.1999999999987998,0.0999999999998,2.302585092982743,1.0,0.0,0.0,0.0,1.0,1.000088900582341e-12,0.0,1.029558885928384,0.02955888592838396,0.02955888592838396,1.0333058707780236,0.033305870778023605,0.033305870778023605,1.0333487410484032,0.03334874104840324,0.03334874104840324,1.0848864476314908,0.08488644763149078,0.08488644763149078,1.1040562226221278,0.10405622262212777,0.10405622262212777,-0.033177080450661506,0.9953188959844355,-0.004681104015564541,-0.004681104015564541,-0.022086515431337,0.9949814236076914,-0.005018576392308627,-0.005018576392308627,-0.046524193554515536,0.9447800487208169,-0.05521995127918311,-0.05521995127918311,-0.05016944456665118,0.9266186896921703,-0.07338131030782968,-0.07338131030782968,0.028883526105342422,1.0333058707780236,0.033305870778023605,0.033305870778023605,-0.033177080450661506,0.9953188959844355,-0.004681104015564541,-0.004681104015564541
2025-02-07,2025-02-10,2025-02-17,5,10,297,0.9848484848475001,0.012030202953875191,0.013306059477419701,0.011877791227106638,0.010217963638253114,0.011435224626751728,equal_weight,0.9999999999989999,0.0999999999998,2.302585092982743,1.0,0.0,0.0,0.0,1.0,1.000088900582341e-12,0.0,1.0419446882790682,0.041944688279068165,0.041944688279068165,1.0470551001529629,0.04705510015296288,0.04705510015296288,1.0456226416593697,0.04562264165936969,0.04562264165936969,1.0959717779050229,0.09597177790502287,0.09597177790502287,1.1166813535283748,0.11668135352837483,0.11668135352837483,-0.0012758565235445104,0.9940490118779866,-0.005950988122013445,-0.005950988122013445,0.0001524117267685532,0.9951330704445661,-0.004866929555433885,-0.004866929555433885,0.0018122393156220773,0.9464922162697241,-0.05350778373027587,-0.05350778373027587,0.0005949783271234632,0.9271700077300448,-0.07282999226995523,-0.07282999226995523,0.013306059477419701,1.0470551001529629,0.04705510015296288,0.04705510015296288,-0.0012758565235445104,0.9940490118779866,-0.005950988122013445,-0.005950988122013445
2025-02-14,2025-02-17,2025-02-24,5,10,299,0.9849498327749349,0.04718548045451147,0.007714757070756825,0.005654104298578266,0.01618045562742898,0.02904657851242831,equal_weight,0.7999999999992,0.0999999999998,2.302585092982743,1.0,0.0,0.0,0.0,1.0,1.000088900582341e-12,0.0,1.0911093490025423,0.0911093490025423,0.0911093490025423,1.0551328758903398,0.05513287589033977,0.05513287589033977,1.0515347011322667,0.05153470113226666,0.05153470113226666,1.1137051006263294,0.11370510062632944,0.11370510062632944,1.1491171261370015,0.14911712613700145,0.14911712613700145,0.039470723383754645,1.033284845455717,0.03328484545571708,0.03328484545571708,0.041531376155933206,1.0364623163184081,0.03646231631840813,0.03646231631840813,0.031005024827082492,0.9758382309338073,-0.024161769066192718,-0.024161769066192718,0.01813890194208316,0.9439878535839006,-0.05601214641609942,-0.05601214641609942,0.007714757070756825,1.0551328758903398,0.05513287589033977,0.05513287589033977,0.039470723383754645,1.033284845455717,0.03328484545571708,0.03328484545571708
2025-02-21,2025-02-24,2025-03-03,5,10,299,0.9849498327749349,-0.07593633061953382,-0.019236923736822377,-0.020465690627316957,-0.026336428632518394,-0.02944821987047097,equal_weight,0.9999999999989999,0.0999999999998,2.302585092982743,1.0,0.0,0.0,0.0,1.0,1.000088900582341e-12,0.0,1.0082545087346209,0.008254508734620858,0.008254508734620858,1.0348353652246232,0.03483536522462316,0.03483536522462316,1.0300143172550056,0.030014317255005585,0.030014317255005585,1.0843740857260125,0.08437408572601246,0.08437408572601246,1.1152776723495954,0.1152776723495954,0.1152776723495954,-0.056699406882711446,0.9746982075774837,-0.02530179242251629,-0.02530179242251629,-0.055470639992216866,0.9789690883044104,-0.02103091169558957,-0.02103091169558957,-0.04959990198701543,0.9274367503243078,-0.07256324967569217,-0.07256324967569217,-0.04648811074906285,0.900103641700722,-0.09989635829927801,-0.09989635829927801,-0.019236923736822377,1.0348353652246232,0.03483536522462316,0.03483536522462316,-0.056699406882711446,0.9746982075774837,-0.02530179242251629,-0.02530179242251629
2025-02-28,2025-03-03,2025-03-10,5,10,298,0.9848993288580756,0.028073518546139146,0.008450014137087045,0.010371163597853394,0.02172171185758165,0.03941919163743046,equal_weight,0.3999999999996,0.0999999999998,2.302585092982743,1.0,0.0,0.0,0.0,1.0,1.000088900582341e-12,0.0,1.0365597603848107,0.03655976038481068,0.03655976038481068,1.043579738690329,0.04357973869032894,0.04357973869032894,1.0406967642473886,0.04069676424738855,0.04069676424738855,1.1079285471619815,0.10792854716198153,0.10792854716198153,1.1592410166448914,0.15924101664489143,0.15924101664489143,0.0196235044090521,0.9938252021513756,-0.006174797848624403,-0.006174797848624403,0.017702354948285752,0.9962991465889748,-0.003700853411025218,-0.003700853411025218,0.006351806688557497,0.9333276492782319,-0.06667235072176814,-0.06667235072176814,-0.011345673091291315,0.8898913600337048,-0.11010863996629516,-0.11010863996629516,0.008450014137087045,1.043579738690329,0.04357973869032894,0.04357973869032894,0.0196235044090521,0.9938252021513756,-0.006174797848624403,-0.006174797848624403
2025-03-07,2025-03-10,2025-03-17,5,10,298,0.9848993288580756,-0.01764356715879469,0.01776290099956716,0.017304511655206634,0.015697535876483037,0.01051882901524026,equal_weight,0.9999999999989999,0.0999999999998,2.302585092982743,1.0,0.0,0.0,0.0,1.0,1.000088900582341e-12,0.0,1.018271148638357,0.018271148638357104,0.018271148638357104,1.0621167422738396,0.062116742273839565,0.062116742273839565,1.0587055135338432,0.058705513533843234,0.058705513533843234,1.1253202952796364,0.1253202952796364,0.1253202952796364,1.1714348746864323,0.17143487468643226,0.17143487468643226,-0.03540646815836185,0.9586373617764253,-0.041362638223574666,-0.041362638223574666,-0.034948078814001325,0.961480405491661,-0.03851959450833897,-0.03851959450833897,-0.03334110303527773,0.9022094759579729,-0.09779052404202715,-0.09779052404202715,-0.028162396174034952,0.8648298870005849,-0.13517011299941506,-0.13517011299941506,0.01776290099956716,1.0621167422738396,0.062116742273839565,0.062116742273839565,-0.03540646815836185,0.9586373617764253,-0.041362638223574666,-0.041362638223574666
2025-03-14,2025-03-17,2025-03-24,5,10,299,0.9849498327749349,-0.04624345054089166,-0.02220122164947419,-0.015497194246980484,-0.022746986010846904,-0.03478605419537495,equal_weight,0.3999999999996,0.0999999999998,2.302585092982743,1.0,0.0,0.0,0.0,1.0,1.000088900582341e-12,0.0,0.9711827771390823,-0.0288172228609177,-0.0288172228609177,1.0385364530610006,0.03853645306100062,0.03853645306100062,1.04229854854026,0.04229854854026005,0.04229854854026005,1.0997226502651885,0.09972265026518845,0.09972265026518845,1.1306852776492378,0.13068527764923776,0.13068527764923776,-0.024042228891417473,0.9355895829007319,-0.06441041709926809,-0.06441041709926809,-0.03074625629391118,0.9319184825228408,-0.06808151747715918,-0.06808151747715918,-0.02349646453004476,0.8810107430074561,-0.11898925699254392,-0.11898925699254392,-0.011457396345516714,0.8549211882137708,-0.14507881178622917,-0.14507881178622917,-0.02220122164947419,1.0385364530610006,0.03853645306100062,0.03853645306100062,-0.024042228891417473,0.9355895829007319,-0.06441041709926809,-0.06441041709926809
2025-03-21,2025-03-24,2025-03-31,5,10,297,0.9848484848475001,-0.019156159638204013,-0.006005597407530042,-0.012082547513259323,-0.01864726534864103,-0.021019627721218237,equal_weight,1.3999999999985997,0.0999999999998,2.302585092982743,1.0,0.0,0.0,0.0,1.0,1.000088900582341e-12,0.0,0.9525786448223317,-0.04742135517766832,-0.04742135517766832,1.032299421230872,0.03229942123087204,0.03229942123087204,1.029704926804521,0.02970492680452108,0.02970492680452108,1.0792158301957828,0.07921583019578282,0.07921583019578282,1.1069186940431885,0.10691869404318854,0.10691869404318854,-0.01315056223067397,0.9232860538684254,-0.07671394613157456,-0.07671394613157456,-0.00707361212494469,0.9253264526454071,-0.07467354735459286,-0.07467354735459286,-0.000508894289562984,0.880562401671296,-0.11943759832870404,-0.11943759832870404,0.001863468083014224,0.8565143065614998,-0.14348569343850015,-0.14348569343850015,-0.006005597407530042,1.032299421230872,0.03229942123087204,0.03229942123087204,-0.01315056223067397,0.9232860538684254,-0.07671394613157456,-0.07671394613157456
2025-03-28,2025-03-31,2025-04-08,5,10,298,0.9848993288580756,-0.13163776116288883,-0.08352075648880133,-0.06085113958098509,-0.09062455827915472,-0.11187879708652293,equal_weight,0.5999999999994,0.0999999999998,2.302585092982743,1.0,0.0,0.0,0.0,1.0,1.000088900582341e-12,0.0,0.8271833246863413,-0.17281667531365874,-0.17281667531365874,0.9460809926467179,-0.053919007353282145,-0.053919007353282145,0.9670462085763112,-0.032953791423688816,-0.032953791423688816,0.9814123722964188,-0.018587627703581244,-0.018587627703581244,0.9830779620810517,-0.016922037918948307,-0.016922037918948307,-0.0481170046740875,0.8788602944989186,-0.12113970550108144,-0.12113970550108144,-0.07078662158190374,0.8598257192022714,-0.14017428079772865,-0.14017428079772865,-0.04101320288373411,0.844447717239763,-0.15555228276023703,-0.15555228276023703,-0.019758964076365904,0.8395904711472577,-0.1604095288527423,-0.1604095288527423,-0.08352075648880133,0.9460809926467179,-0.053919007353282145,-0.053919007353282145,-0.0481170046740875,0.8788602944989186,-0.12113970550108144,-0.12113970550108144
2025-04-07,2025-04-08,2025-04-15,5,10,299,0.9849498327749349,0.03995726674088201,0.04417980279221684,0.03026110460865783,0.051741026793374,0.06944099107073587,equal_weight,0.3999999999996,0.0999999999998,2.302585092982743,1.0,0.0,0.0,0.0,1.0,1.000088900582341e-12,0.0,0.860235309434443,-0.13976469056555696,-0.13976469056555696,0.9878786643273146,-0.012121335672685363,-0.012121335672685363,0.9963100950554449,-0.0036899049445551224,-0.0036899049445551224,1.0321916561467566,0.032191656146756564,0.032191656146756564,1.0513438700677593,0.05134387006775931,0.05134387006775931,-0.004222536051334831,0.8751492752213101,-0.12485072477868986,-0.12485072477868986,0.009696162132224177,0.8681627287811129,-0.1318372712188871,-0.1318372712188871,-0.011783760052491994,0.8344969479629349,-0.16550305203706506,-0.16550305203706506,-0.029483724329853862,0.8148362171459798,-0.18516378285402024,-0.18516378285402024,0.04417980279221684,0.9878786643273146,-0.012121335672685363,-0.012121335672685363,-0.004222536051334831,0.8751492752213101,-0.12485072477868986,-0.12485072477868986
2025-04-14,2025-04-15,2025-04-22,5,10,299,0.9849498327749349,0.017953750351342324,0.010035443199633396,0.006039771511218817,0.003868785089032878,0.0059659835959544605,equal_weight,0.5999999999994,0.0999999999998,2.302585092982743,1.0,0.0,0.0,0.0,1.0,1.000088900582341e-12,0.0,0.8756797594234387,-0.12432024057656132,-0.12432024057656132,0.9977924645513012,-0.002207535448698783,-0.002207535448698783,1.0023275803839005,0.0023275803839004627,0.0023275803839004627,1.0361849838350814,0.0361849838350814,0.0361849838350814,1.0576161703502909,0.057616170350290874,0.057616170350290874,0.007918307151708928,0.8820789759861078,-0.11792102401389215,-0.11792102401389215,0.011913978840123508,0.8785060011615949,-0.12149399883840506,-0.12149399883840506,0.014084965262309446,0.8462508084864961,-0.15374919151350386,-0.15374919151350386,0.011987766755387864,0.8246042836609683,-0.17539571633903173,-0.17539571633903173,0.010035443199633396,0.9977924645513012,-0.002207535448698783,-0.002207535448698783,0.007918307151708928,0.8820789759861078,-0.11792102401389215,-0.11792102401389215
2025-04-21,2025-04-22,2025-04-29,5,10,299,0.9849498327749349,-0.03489835091425557,-0.009040436488951234,-0.0023454314431051726,-0.0034321270777811774,-0.007720388508788978,equal_weight,1.7999999999981995,0.0999999999998,2.302585092982743,1.0,0.0,0.0,0.0,1.0,1.000088900582341e-12,0.0,0.8451199798905686,-0.15488002010943136,-0.15488002010943136,0.988771985146371,-0.01122801485362901,-0.01122801485362901,0.9999766897605765,-2.331023942347965e-05,-2.331023942347965e-05,1.0326286652944707,0.03262866529447073,0.03262866529447073,1.049450962622009,0.04945096262200899,0.04945096262200899,-0.025857914425304336,0.859270253308699,-0.140729746691301,-0.140729746691301,-0.032552919471150396,0.8499080660508592,-0.15009193394914078,-0.15009193394914078,-0.03146622383647439,0.8196224911248626,-0.18037750887513737,-0.18037750887513737,-0.02717796240546659,0.8021932194402438,-0.1978067805597562,-0.1978067805597562,-0.009040436488951234,0.988771985146371,-0.01122801485362901,-0.01122801485362901,-0.025857914425304336,0.859270253308699,-0.140729746691301,-0.140729746691301
2025-04-28,2025-04-29,2025-05-09,5,10,299,0.9849498327749349,0.046160757975141437,0.022508299474139355,0.018828755016122578,0.020841919561184197,0.030270958286446215,equal_weight,1.3999999999985997,0.0999999999998,2.302585092982743,1.0,0.0,0.0,0.0,1.0,1.000088900582341e-12,0.0,0.8841313587422537,-0.11586864125774632,-0.11586864125774632,1.0110275610996848,0.011027561099684835,0.011027561099684835,1.0188050058739115,0.01880500587391154,0.01880500587391154,1.054150628873111,0.05415062887311106,0.05415062887311106,1.0812188489352106,0.08121884893521059,0.08121884893521059,0.02365245850100208,0.8795941073162286,-0.12040589268377144,-0.12040589268377144,0.02733200295901886,0.8731377558270553,-0.12686224417294467,-0.12686224417294467,0.02531883841395724,0.8403743805380982,-0.1596256194619018,-0.1596256194619018,0.015889799688695222,0.8149399090087789,-0.18506009099122112,-0.18506009099122112,0.022508299474139355,1.0110275610996848,0.011027561099684835,0.011027561099684835,0.02365245850100208,0.8795941073162286,-0.12040589268377144,-0.12040589268377144
2025-05-08,2025-05-09,2025-05-16,5,10,299,0.9849498327749349,0.001597127144179901,0.0067383646610000535,0.011161270847757532,-0.0010266138364266597,-0.0022960887406650032,equal_weight,0.9999999999989999,0.0999999999998,2.302585092982743,1.0,0.0,0.0,0.0,1.0,1.000088900582341e-12,0.0,0.8855434289343216,-0.11445657106567841,-0.11445657106567841,1.017840233488696,0.01784023348869601,0.01784023348869601,1.0301761644855214,0.030176164485521406,0.030176164485521406,1.0530684232518321,0.05306842325183214,0.05306842325183214,1.0787362745099758,0.07873627450997578,0.07873627450997578,-0.0051412375168201525,0.8750719050921204,-0.1249280949078796,-0.1249280949078796,-0.00956414370357763,0.8647869408573061,-0.13521305914269388,-0.13521305914269388,0.0026237409806065606,0.8425793052393677,-0.15742069476063225,-0.15742069476063225,0.003893215884844904,0.8181126460077258,-0.18188735399227418,-0.18188735399227418,0.0067383646610000535,1.017840233488696,0.01784023348869601,0.01784023348869601,-0.0051412375168201525,0.8750719050921204,-0.1249280949078796,-0.1249280949078796
2025-05-15,2025-05-16,2025-05-23,5,10,299,0.9849498327749349,-0.013609393333579859,0.004551611441194921,-0.0017513116838538956,-0.010987868993740268,-0.012926909616278182,equal_weight,0.5999999999994,0.0999999999998,2.302585092982743,1.0,0.0,0.0,0.0,1.0,1.000088900582341e-12,0.0,0.8734917200959873,-0.1265082799040127,-0.1265082799040127,1.0224730467407517,0.02247304674075168,0.02247304674075168,1.02837200493223,0.02837200493223002,0.02837200493223002,1.0414974453756964,0.04149744537569644,0.04149744537569644,1.0647915481895847,0.06479154818958466,0.06479154818958466,-0.01816100477477478,0.8591797200454712,-0.14082027995452884,-0.14082027995452884,-0.011858081649725963,0.8545322267030034,-0.14546777329699656,-0.14546777329699656,-0.0026215243398395906,0.8403704630824376,-0.15962953691756243,-0.15962953691756243,-0.0006824837173016775,0.8175542974479069,-0.18244570255209314,-0.18244570255209314,0.004551611441194921,1.0224730467407517,0.02247304674075168,0.02247304674075168,-0.01816100477477478,0.8591797200454712,-0.14082027995452884,-0.14082027995452884
2025-05-22,2025-05-23,2025-05-30,5,10,299,0.9849498327749349,-0.0017377219620763919,-0.01229964946636897,-0.010829220194144118,0.0031890783089605357,0.0061580970586883055,equal_weight,0.3999999999996,0.0999999999998,2.302585092982743,1.0,0.0,0.0,0.0,1.0,1.000088900582341e-12,0.0,0.8719738343502845,-0.12802616564971547,-0.12802616564971547,1.0098969866770302,0.009896986677030206,0.009896986677030206,1.0172355380493254,0.017235538049325427,0.017235538049325427,1.0448188622875818,0.04481886228758181,0.04481886228758181,1.0713486378906072,0.07134863789060719,0.07134863789060719,0.010561927504292579,0.8682543139617498,-0.1317456860382502,-0.1317456860382502,0.009091498232067726,0.8623012049313188,-0.1376987950686812,-0.1376987950686812,-0.0049268002710369276,0.8362301256571515,-0.1637698743428485,-0.1637698743428485,-0.007895819020764697,0.8110990366756097,-0.18890096332439033,-0.18890096332439033,-0.01229964946636897,1.0098969866770302,0.009896986677030206,0.009896986677030206,0.010561927504292579,0.8682543139617498,-0.1317456860382502,-0.1317456860382502
2025-05-29,2025-05-30,2025-06-09,5,10,297,0.9848484848475001,0.07702208649056182,0.014998917109758128,0.011721687648037715,0.02373131570186371,0.031926007539956336,equal_weight,0.3999999999996,0.0999999999998,2.302585092982743,1.0,0.0,0.0,0.0,1.0,1.000088900582341e-12,0.0,0.9391350784371189,-0.06086492156288115,-0.06086492156288115,1.0250443478695936,0.02504434786959364,0.02504434786959364,1.0291592552908233,0.029159255290823305,0.029159255290823305,1.0696137885597905,0.0696137885597905,0.0696137885597905,1.1055525225818246,0.10555252258182457,0.10555252258182457,0.06202316938080369,0.922106198342213,-0.07789380165778703,-0.07789380165778703,0.0653003988425241,0.9186098175357229,-0.0813901824642771,-0.0813901824642771,0.05329077078869811,0.8807934736101509,-0.11920652638984908,-0.11920652638984908,0.04509607895060548,0.847676422870293,-0.152323577129707,-0.152323577129707,0.014998917109758128,1.0250443478695936,0.02504434786959364,0.02504434786959364,0.06202316938080369,0.922106198342213,-0.07789380165778703,-0.07789380165778703
2025-06-06,2025-06-09,2025-06-16,5,10,297,0.9848484848475001,0.031793350512445744,-0.002671876366866534,-0.002947303722853345,-0.006518817690479239,-0.011497734992516606,equal_weight,0.3999999999996,0.0999999999998,2.302585092982743,1.0,0.0,0.0,0.0,1.0,1.000088900582341e-12,0.0,0.9689933291644034,-0.031006670835596606,-0.031006670835596606,1.0223055561015308,0.022305556101530843,0.022305556101530843,1.0261260103862957,0.026126010386295695,0.026126010386295695,1.0626411712729464,0.06264117127294644,0.06264117127294644,1.0928411726568705,0.09284117265687053,0.09284117265687053,0.03446522687931228,0.9538867976748974,-0.04611320232510263,-0.04611320232510263,0.03474065423529909,0.9505229235838826,-0.04947707641611743,-0.04947707641611743,0.03831216820292498,0.9145385813231417,-0.0854614186768583,-0.0854614186768583,0.04329108550496235,0.8843732553733116,-0.11562674462668843,-0.11562674462668843,-0.002671876366866534,1.0223055561015308,0.022305556101530843,0.022305556101530843,0.03446522687931228,0.9538867976748974,-0.04611320232510263,-0.04611320232510263
2025-06-13,2025-06-16,2025-06-23,5,10,299,0.9849498327749349,-0.023536222878017425,-0.01031609661067051,-0.004102695160688952,-0.01623459033310415,-0.0112628630361159,equal_weight,0.3999999999996,0.0999999999998,2.302585092982743,1.0,0.0,0.0,0.0,1.0,1.000088900582341e-12,0.0,0.946186886201878,-0.053813113798122036,-0.053813113798122036,1.0117593532191622,0.011759353219162216,0.011759353219162216,1.0219161281692268,0.021916128169226834,0.021916128169226834,1.0453896271862402,0.04538962718624018,0.04538962718624018,1.080532652209008,0.08053265220900796,0.08053265220900796,-0.013220126267346916,0.94127629376488,-0.05872370623512002,-0.05872370623512002,-0.019433527717328473,0.9320509100024591,-0.0679490899975409,-0.0679490899975409,-0.007301632544913277,0.9078609566541739,-0.09213904334582612,-0.09213904334582612,-0.012273359841901525,0.873519024175561,-0.12648097582443896,-0.12648097582443896,-0.01031609661067051,1.0117593532191622,0.011759353219162216,0.011759353219162216,-0.013220126267346916,0.94127629376488,-0.05872370623512002,-0.05872370623512002
2025-06-20,2025-06-23,2025-06-30,5,10,299,0.9849498327749349,0.10552240598821938,0.030966125222932635,0.02026412283152834,0.0425115920037642,0.0457303138977152,equal_weight,0.3999999999996,0.0999999999998,2.302585092982743,1.0,0.0,0.0,0.0,1.0,1.000088900582341e-12,0.0,1.0460308029484016,0.04603080294840156,0.04603080294840156,1.0430896200464201,0.04308962004642014,0.04308962004642014,1.042624362113968,0.04262436211396792,0.04262436211396792,1.0898308045021488,0.08983080450214875,0.08983080450214875,1.1299457495712566,0.1299457495712566,0.1299457495712566,0.07455628076528675,1.011454353400523,0.01145435340052292,0.01145435340052292,0.08525828315669104,1.0115159704039003,0.011515970403900289,0.011515970403900289,0.06301081398445518,0.9650660145176596,-0.03493398548234039,-0.03493398548234039,0.05979209209050418,0.9257485541118735,-0.07425144588812649,-0.07425144588812649,0.030966125222932635,1.0430896200464201,0.04308962004642014,0.04308962004642014,0.07455628076528675,1.011454353400523,0.01145435340052292,0.01145435340052292
2025-06-27,2025-06-30,2025-07-07,5,10,299,0.9849498327749349,0.004816503413275288,0.008305679475242606,0.007392128054340086,-0.0025327163661962304,-0.0045690958139801285,equal_weight,0.5999999999994,0.0999999999998,2.302585092982743,1.0,0.0,0.0,0.0,1.0,1.000088900582341e-12,0.0,1.0510690138811936,0.05106901388119356,0.05106901388119356,1.0517531880944782,0.05175318809447815,0.05175318809447815,1.050331574911289,0.05033157491128892,0.05033157491128892,1.0870705721872014,0.08707057218720138,0.08707057218720138,1.124782919176866,0.1247829191768659,0.1247829191768659,-0.0034891760619673176,1.0079252110828651,0.007925211082865147,0.007925211082865147,-0.002575624641064798,1.0089106849456975,0.008910684945697467,0.008910684945697467,0.007349219779471518,0.9721584967600486,-0.027841503239951382,-0.027841503239951382,0.009385599227255417,0.9344372590259786,-0.06556274097402137,-0.06556274097402137,0.008305679475242606,1.0517531880944782,0.05175318809447815,0.05175318809447815,-0.0034891760619673176,1.0079252110828651,0.007925211082865147,0.007925211082865147
2025-07-04,2025-07-07,2025-07-14,5,10,299,0.9849498327749349,0.061405678875079764,0.01832582295320708,0.013238507758169371,0.020414357927234006,0.021362894034728797,equal_weight,0.3999999999996,0.0999999999998,2.302585092982743,1.0,0.0,0.0,0.0,1.0,1.000088900582341e-12,0.0,1.115610620223129,0.11561062022312907,0.11561062022312907,1.0710274308099685,0.07102743080996854,0.07102743080996854,1.0642363976144023,0.06423639761440225,0.06423639761440225,1.109262419939994,0.10926241993999408,0.10926241993999408,1.1488115374913141,0.14881153749131415,0.14881153749131415,0.04307985592187268,1.051346483956338,0.05134648395633801,0.05134648395633801,0.04816717111691039,1.0575070585491562,0.057507058549156165,0.057507058549156165,0.04099132094784576,1.0120085577129152,0.012008557712915202,0.012008557712915202,0.04004278484035097,0.9718547291359633,-0.02814527086403673,-0.02814527086403673,0.01832582295320708,1.0710274308099685,0.07102743080996854,0.07102743080996854,0.04307985592187268,1.051346483956338,0.05134648395633801,0.05134648395633801
2025-07-11,2025-07-14,2025-07-21,5,10,299,0.9849498327749349,0.0820089130093967,0.01589250917663619,0.016910058272609607,0.02332723619669541,0.02320441390494543,equal_weight,0.0,0.0999999999998,2.302585092982743,1.0,0.0,0.0,0.0,1.0,1.000088900582341e-12,0.0,1.2071006345293667,0.20710063452936667,0.20710063452936667,1.088048744082545,0.08804874408254504,0.08804874408254504,1.082232697113894,0.08223269711389403,0.08223269711389403,1.1351384464140521,0.13513844641405215,0.13513844641405215,1.1754690359060394,0.17546903590603935,0.17546903590603935,0.0661164038327605,1.120857732657748,0.12085773265774802,0.12085773265774802,0.06509885473678709,1.1263495569367745,0.12634955693677452,0.12634955693677452,0.05868167681270128,1.0713949168283123,0.07139491682831234,0.07139491682831234,0.05880449910445126,1.0290041596850956,0.02900415968509562,0.02900415968509562,0.01589250917663619,1.088048744082545,0.08804874408254504,0.08804874408254504,0.0661164038327605,1.120857732657748,0.12085773265774802,0.12085773265774802
2025-07-18,2025-07-21,2025-07-28,5,10,300,0.9849999999990152,0.016816979099788118,0.018966636798388056,0.012291196877232347,0.026311129664166932,0.017803295363959526,equal_weight,0.3999999999996,0.0999999999998,2.302585092982743,1.0,0.0,0.0,0.0,1.0,1.000088900582341e-12,0.0,1.227400420671588,0.22740042067158805,0.22740042067158805,1.108685369430501,0.108685369430501,0.108685369430501,1.095534632261099,0.09553463226109904,0.09553463226109904,1.1650052212644333,0.1650052212644333,0.1650052212644333,1.1963962583434633,0.1963962583434633,0.1963962583434633,-0.0021496576985999376,1.118448272203705,0.11844827220370502,0.11844827220370502,0.0045257822225557715,1.1314471697379425,0.13144716973794246,0.13144716973794246,-0.009494150564378814,1.061222932174034,0.06122293217403407,0.06122293217403407,-0.000986316264171408,1.0279892361464982,0.027989236146498175,0.027989236146498175,0.018966636798388056,1.108685369430501,0.108685369430501,0.108685369430501,-0.0021496576985999376,1.118448272203705,0.11844827220370502,0.11844827220370502
2025-07-25,2025-07-28,2025-08-04,5,10,300,0.9849999999990152,0.02598557623510911,-0.01699874942644716,-0.01574583444556643,-0.009755638562676694,0.0014435409085227224,equal_weight,0.3999999999996,0.0999999999998,2.302585092982743,1.0,0.0,0.0,0.0,1.0,1.000088900582341e-12,0.0,1.2592951278739546,0.2592951278739546,0.2592951278739546,1.0898391046427838,0.08983910464278377,0.08983910464278377,1.0782845253121314,0.07828452531213137,0.07828452531213137,1.1536398514021462,0.1536398514021462,0.1536398514021462,1.1981233052851856,0.19812330528518562,0.19812330528518562,0.04298432566155627,1.1665240169717142,0.16652401697171415,0.16652401697171415,0.04173141068067554,1.1786640562417647,0.17866405624176473,0.17866405624176473,0.0357412147977858,1.0991523289412024,0.0991523289412024,0.0991523289412024,0.024542035326586387,1.053218184295356,0.053218184295356075,0.053218184295356075,-0.01699874942644716,1.0898391046427838,0.08983910464278377,0.08983910464278377,0.04298432566155627,1.1665240169717142,0.16652401697171415,0.16652401697171415
2025-08-01,2025-08-04,2025-08-11,5,10,300,0.9849999999990152,0.030396846016148824,0.01690965099237913,0.012727288806696935,0.020765663679899404,0.0303044915689048,equal_weight,0.1999999999998,0.0999999999998,2.302585092982743,1.0,0.0,0.0,0.0,1.0,1.000088900582341e-12,0.0,1.2975737279648256,0.2975737279648256,0.2975737279648256,1.1082679035401402,0.10826790354014015,0.10826790354014015,1.092008163881571,0.09200816388157107,0.09200816388157107,1.1775959485640923,0.17759594856409233,0.17759594856409233,1.2344318228887088,0.23443182288870879,0.23443182288870879,0.013487195023769695,1.1822571538885227,0.1822571538885227,0.1822571538885227,0.01766955720945189,1.1994905282142532,0.19949052821425317,0.19949052821425317,0.00963118233624942,1.1097384654365483,0.1097384654365483,0.1097384654365483,9.235444724402242e-05,1.053315453678594,0.05331545367859403,0.05331545367859403,0.01690965099237913,1.1082679035401402,0.10826790354014015,0.10826790354014015,0.013487195023769695,1.1822571538885227,0.1822571538885227,0.1822571538885227
2025-08-08,2025-08-11,2025-08-18,5,10,299,0.9849498327749349,0.15921801252638387,0.024623592294490092,0.028356989223315088,0.043245209457175804,0.042290850277011405,equal_weight,0.5999999999994,0.0999999999998,2.302585092982743,1.0,0.0,0.0,0.0,1.0,1.000088900582341e-12,0.0,1.5041708380378358,0.5041708380378358,0.5041708380378358,1.135557440549982,0.13555744054998198,0.13555744054998198,1.1229742276165329,0.12297422761653287,0.12297422761653287,1.228521332015668,0.22852133201566804,0.22852133201566804,1.2866369942876734,0.2866369942876734,0.2866369942876734,0.13459442023189377,1.3413823700811573,0.34138237008115735,0.34138237008115735,0.13086102330306879,1.3564570861787086,0.35645708617870864,0.35645708617870864,0.11597280306920807,1.2384379459469461,0.23843794594694612,0.23843794594694612,0.11692716224937247,1.1764766406306422,0.17647664063064217,0.17647664063064217,0.024623592294490092,1.135557440549982,0.13555744054998198,0.13555744054998198,0.13459442023189377,1.3413823700811573,0.34138237008115735,0.34138237008115735
2025-08-15,2025-08-18,2025-08-25,5,10,298,0.9848993288580756,0.08777350939002274,0.04994529619130025,0.05420774055276034,0.0425488360904851,0.03317756350791323,equal_weight,0.5999999999994,0.0999999999998,2.302585092982743,1.0,0.0,0.0,0.0,1.0,1.000088900582341e-12,0.0,1.636197191214548,0.6361971912145481,0.6361971912145481,1.1922731932604858,0.19227319326048575,0.19227319326048575,1.1838481231946063,0.1838481231946063,0.1838481231946063,1.2807934848052671,0.2807934848052671,0.2807934848052671,1.3293244748772832,0.3293244748772832,0.3293244748772832,0.03782821319872249,1.3921244683575948,0.39212446835759485,0.39212446835759485,0.033565768837262394,1.4019876111710496,0.40198761117104964,0.40198761117104964,0.04522467329953764,1.294445897454147,0.29444589745414707,0.29444589745414707,0.0545959458821095,1.2407074956340787,0.24070749563407867,0.24070749563407867,0.04994529619130025,1.1922731932604858,0.19227319326048575,0.19227319326048575,0.03782821319872249,1.3921244683575948,0.39212446835759485,0.39212446835759485
2025-08-22,2025-08-25,2025-09-01,5,10,300,0.9849999999990152,0.15252008698190703,0.01438795007107413,0.012192054903515492,0.022784000220946732,0.0031319673569296658,equal_weight,0.9999999999989999,0.0999999999998,2.302585092982743,1.0,0.0,0.0,0.0,1.0,1.000088900582341e-12,0.0,1.8857501291381429,0.8857501291381429,0.8857501291381429,1.2094275604361977,0.2094275604361977,0.2094275604361977,1.1982816645100187,0.19828166451001872,0.19828166451001872,1.3099750838460575,0.30997508384605754,0.30997508384605754,1.3334878757393664,0.33348787573936645,0.33348787573936645,0.1381321369108329,1.5844215960176864,0.5844215960176864,0.5844215960176864,0.14032803207839153,1.5987257736449683,0.5987257736449683,0.5987257736449683,0.1297360867609603,1.4623822427136273,0.46238224271362727,0.46238224271362727,0.14938811962497736,1.4260544554114685,0.42605445541146847,0.42605445541146847,0.01438795007107413,1.2094275604361977,0.2094275604361977,0.2094275604361977,0.1381321369108329,1.5844215960176864,0.5844215960176864,0.5844215960176864
2025-08-29,2025-09-01,2025-09-08,5,10,300,0.9849999999990152,0.019973908186035443,-0.008738639409026095,-0.01240972290228104,-0.01661972060766037,-0.025344653911641424,equal_weight,0.3999999999996,0.0999999999998,2.302585092982743,1.0,0.0,0.0,0.0,1.0,1.000088900582341e-12,0.0,1.9234159290793527,0.9234159290793527,0.9234159290793527,1.1988588090942076,0.1988588090942076,0.1988588090942076,1.1834113210945654,0.18341132109456537,0.18341132109456537,1.2882036639495396,0.28820366394953956,0.28820366394953956,1.2996910870333822,0.2996910870333822,0.2996910870333822,0.02871254759506154,1.6299143765039876,0.6299143765039876,0.6299143765039876,0.03238363108831648,1.6504983193100704,0.6504983193100704,0.6504983193100704,0.036593628793695814,1.5158961156579822,0.5158961156579822,0.5158961156579822,0.045318562097676866,1.4906811928037018,0.4906811928037018,0.4906811928037018,-0.008738639409026095,1.1988588090942076,0.1988588090942076,0.1988588090942076,0.02871254759506154,1.6299143765039876,0.6299143765039876,0.6299143765039876
2025-09-05,2025-09-08,2025-09-15,5,10,299,0.9849498327749349,0.0820378007932398,0.011348670308843548,0.014657398994935011,0.020772821736249503,0.014298524668330037,equal_weight,0.5999999999994,0.0999999999998,2.302585092982743,1.0,0.0,0.0,0.0,1.0,1.000088900582341e-12,0.0,2.081208741911709,1.0812087419117091,1.0812087419117091,1.2124642624654705,0.21246426246547045,0.21246426246547045,1.2007570530029716,0.20075705300297164,0.20075705300297164,1.3149632890207468,0.3149632890207468,0.3149632890207468,1.3182747521025378,0.31827475210253775,0.31827475210253775,0.07068913048439625,1.7451316065430713,0.7451316065430713,0.7451316065430713,0.06738040179830479,1.7617095592326097,0.7617095592326097,0.7617095592326097,0.0612649790569903,1.6087674594363415,0.6087674594363415,0.6087674594363415,0.06773927612490976,1.5916588577372417,0.5916588577372417,0.5916588577372417,0.011348670308843548,1.2124642624654705,0.21246426246547045,0.21246426246547045,0.07068913048439625,1.7451316065430713,0.7451316065430713,0.7451316065430713
2025-09-12,2025-09-15,2025-09-22,5,10,300,0.9849999999990152,-5.8461541748476044e-05,-0.010032449160324388,-0.002304846884750633,0.012296558266687407,0.009966461112704605,equal_weight,0.5999999999994,0.0999999999998,2.302585092982743,1.0,0.0,0.0,0.0,1.0,1.000088900582341e-12,0.0,2.0810870712399567,1.0810870712399567,1.0810870712399567,1.2003002763935753,0.20030027639357528,0.20030027639357528,1.1979894918500154,0.19798949185001535,0.19798949185001535,1.3311328117227452,0.3311328117227452,0.3311328117227452,1.331413286155228,0.3314132861552279,0.3314132861552279,0.009973987618575913,1.7625375275795172,0.7625375275795172,0.7625375275795172,0.002246385343002157,1.7656670377650967,0.7656670377650967,0.7656670377650967,-0.012355019808435883,1.5888911056078383,0.5888911056078383,0.5888911056078383,-0.01002492265445308,1.5757026007961508,0.5757026007961508,0.5757026007961508,-0.010032449160324388,1.2003002763935753,0.20030027639357528,0.20030027639357528,0.009973987618575913,1.7625375275795172,0.7625375275795172,0.7625375275795172
2025-09-19,2025-09-22,2025-09-29,5,10,300,0.9849999999990152,0.06551225370969321,0.006235900801489999,0.021546196353961822,0.017360522886238128,0.0011152980221049713,equal_weight,0.7999999999992,0.0999999999998,2.302585092982743,1.0,0.0,0.0,0.0,1.0,1.000088900582341e-12,0.0,2.2174237754429913,1.2174237754429913,1.2174237754429913,1.2077852298491667,0.2077852298491667,0.2077852298491667,1.2238016086713988,0.22380160867139876,0.22380160867139876,1.3542419733652804,0.3542419733652804,0.3542419733652804,1.332898208759881,0.3328982087598811,0.3328982087598811,0.05927635290820321,1.8670143240782726,0.8670143240782726,0.8670143240782726,0.04396605735573139,1.8432964560186014,0.8432964560186014,0.8432964560186014,0.048151730823455086,1.665398962432849,0.6653989624328489,0.6653989624328489,0.06439695568758824,1.677173051356438,0.677173051356438,0.677173051356438,0.006235900801489999,1.2077852298491667,0.2077852298491667,0.2077852298491667,0.05927635290820321,1.8670143240782726,0.8670143240782726,0.8670143240782726
2025-09-26,2025-09-29,2025-10-14,5,10,300,0.9849999999990152,-0.04099675761275855,0.03027897317388091,-0.017529885479668827,-0.02118328399468905,-0.01662867567967341,equal_weight,0.1999999999998,0.0999999999998,2.302585092982743,1.0,0.0,0.0,0.0,1.0,1.000088900582341e-12,0.0,2.126516590396387,1.126516590396387,1.126516590396387,1.2443557264235792,0.24435572642357917,0.24435572642357917,1.2023485066215547,0.20234850662155468,0.20234850662155468,1.3255546810459555,0.32555468104595553,0.32555468104595553,1.3107338767323955,0.3107338767323955,0.3107338767323955,-0.07127573078663946,1.7339415137404701,0.7339415137404701,0.7339415137404701,-0.02346687213308972,1.8000400537818353,0.8000400537818353,0.8000400537818353,-0.019813473618069496,1.6324016240271253,0.6324016240271253,0.6324016240271253,-0.024368081933085137,1.6363035610250218,0.6363035610250218,0.6363035610250218,0.03027897317388091,1.2443557264235792,0.24435572642357917,0.24435572642357917,-0.07127573078663946,1.7339415137404701,0.7339415137404701,0.7339415137404701
2025-10-13,2025-10-14,2025-10-21,5,10,300,0.9849999999990152,-0.04265673124350908,-0.021235279421156474,0.015159072443128974,-0.001282444904001645,-0.003947429810208902,equal_weight,0.5999999999994,0.0999999999998,2.302585092982743,1.0,0.0,0.0,0.0,1.0,1.000088900582341e-12,0.0,2.035806343714985,1.035806343714985,1.035806343714985,1.2179314848736584,0.21793148487365843,0.21793148487365843,1.2205749947353188,0.22057499473531883,0.22057499473531883,1.3238547302002726,0.32385473020027256,0.32385473020027256,1.3055598467541314,0.3055598467541314,0.3055598467541314,-0.021421451822352604,1.6967979691411015,0.6967979691411015,0.6967979691411015,-0.05781580368663805,1.6959692914042992,0.6959692914042992,0.6959692914042992,-0.04137428633950743,1.56486217181355,0.56486217181355,0.56486217181355,-0.038709301433300175,1.5729633932449216,0.5729633932449216,0.5729633932449216,-0.021235279421156474,1.2179314848736584,0.21793148487365843,0.21793148487365843,-0.021421451822352604,1.6967979691411015,0.6967979691411015,0.6967979691411015
2025-10-20,2025-10-21,2025-10-28,5,10,300,0.9849999999990152,0.07467129209001053,0.02118496790869531,0.018251592058112553,0.02162734927405041,0.018405927957704904,equal_weight,0.7999999999992,0.0999999999998,2.302585092982743,1.0,0.0,0.0,0.0,1.0,1.000088900582341e-12,0.0,2.187822633845223,1.1878226338452231,1.1878226338452231,1.2437333242956965,0.2437333242956965,0.2437333242956965,1.2428524316155607,0.2428524316155607,0.2428524316155607,1.3524861988384176,0.3524861988384176,0.3524861988384176,1.3295898872379601,0.3295898872379601,0.3295898872379601,0.053486324181315215,1.7875534553887797,0.7875534553887797,0.7875534553887797,0.056419700031897974,1.7916553700886404,0.7916553700886404,0.7916553700886404,0.053043942815960116,1.6478686313700872,0.6478686313700872,0.6478686313700872,0.05626536413230562,1.6614667513326342,0.6614667513326342,0.6614667513326342,0.02118496790869531,1.2437333242956965,0.2437333242956965,0.2437333242956965,0.053486324181315215,1.7875534553887797,0.7875534553887797,0.7875534553887797
2025-10-27,2025-10-28,2025-11-04,5,10,300,0.9849999999990152,-0.04991833863393108,-0.0012584511045751834,-0.015616884410886711,-0.017736611892336773,-0.0058147766993381644,equal_weight,1.3999999999985997,0.0999999999998,2.302585092982743,1.0,0.0,0.0,0.0,1.0,1.000088900582341e-12,0.0,2.0786101627379585,1.0786101627379585,1.0786101627379585,1.2421681467199395,0.24216814671993947,0.24216814671993947,1.223442948851231,0.22344294885123106,0.22344294885123106,1.3284976760398788,0.3284976760398788,0.3284976760398788,1.3218586189419732,0.3218586189419732,0.3218586189419732,-0.0486598875293559,1.7005713052968503,0.7005713052968503,0.7005713052968503,-0.03430145422304437,1.7301989854280733,0.7301989854280733,0.7301989854280733,-0.03218172674159431,1.5948373733692902,0.5948373733692902,0.5948373733692902,-0.044103561934592916,1.5881901495629687,0.5881901495629687,0.5881901495629687,-0.0012584511045751834,1.2421681467199395,0.24216814671993947,0.24216814671993947,-0.0486598875293559,1.7005713052968503,0.7005713052968503,0.7005713052968503
2025-11-03,2025-11-04,2025-11-11,5,10,300,0.9849999999990152,-0.0024279133570913967,0.01026627248353646,0.007245979874419106,0.011203017685216254,0.01412907486836179,equal_weight,1.1999999999987998,0.0999999999998,2.302585092982743,1.0,0.0,0.0,0.0,1.0,1.000088900582341e-12,0.0,2.073563477359661,1.0735634773596612,1.0735634773596612,1.2549205833845358,0.2549205833845358,0.2549205833845358,1.232307991836107,0.23230799183610706,0.23230799183610706,1.3433808589993221,0.34338085899932214,0.34338085899932214,1.3405352583343937,0.3405352583343937,0.3405352583343937,-0.012694185840627857,1.6789839371121729,0.6789839371121729,0.6789839371121729,-0.009673893231510503,1.7134612251737744,0.7134612251737744,0.7134612251737744,-0.013630931042307651,1.5730982551091983,0.5730982551091983,0.5730982551091983,-0.016556988225453186,1.561894503956874,0.5618945039568739,0.5618945039568739,0.01026627248353646,1.2549205833845358,0.2549205833845358,0.2549205833845358,-0.012694185840627857,1.6789839371121729,0.6789839371121729,0.6789839371121729
2025-11-10,2025-11-11,2025-11-18,5,10,300,0.9849999999990152,-0.059400590219156904,-0.024662147642052726,-0.018050301730419993,-0.019281069415690077,-0.012291813948961283,equal_weight,0.5999999999994,0.0999999999998,2.302585092982743,1.0,0.0,0.0,0.0,1.0,1.000088900582341e-12,0.0,1.9503925829476099,0.9503925829476099,0.9503925829476099,1.2239715466780554,0.2239715466780554,0.2239715466780554,1.2100644607586575,0.21006446075865748,0.21006446075865748,1.317479039405247,0.3174790394052469,0.3174790394052469,1.3240576483469246,0.32405764834692463,0.32405764834692463,-0.03473844257710418,1.6206586500249212,0.6206586500249212,0.6206586500249212,-0.04135028848873691,1.6426091091985742,0.6426091091985742,0.6426091091985742,-0.04011952080346683,1.5099863069374475,0.5099863069374475,0.5099863069374475,-0.04710877627019562,1.4883155652123214,0.48831556521232145,0.48831556521232145,-0.024662147642052726,1.2239715466780554,0.2239715466780554,0.2239715466780554,-0.03473844257710418,1.6206586500249212,0.6206586500249212,0.6206586500249212
2025-11-17,2025-11-18,2025-11-25,5,10,300,0.9849999999990152,-0.0626318013274381,-0.026134186961631396,-0.017028177224561514,-0.027466718724522998,-0.026604633852306825,equal_weight,0.9999999999989999,0.0999999999998,2.302585092982743,1.0,0.0,0.0,0.0,1.0,1.000088900582341e-12,0.0,1.8282359821819265,0.8282359821819265,0.8282359821819265,1.1919840454414539,0.19198404544145387,0.19198404544145387,1.1894592686677157,0.18945926866771567,0.18945926866771567,1.2812922132044482,0.2812922132044482,0.2812922132044482,1.2888315794133083,0.2888315794133083,0.2888315794133083,-0.03649761436580671,1.5615084755977027,0.5615084755977027,0.5615084755977027,-0.04560362410287659,1.5677001808347215,0.5677001808347215,0.5677001808347215,-0.03516508260291511,1.4568875137247215,0.4568875137247215,0.4568875137247215,-0.03602716747513128,1.4346957710885726,0.4346957710885726,0.4346957710885726,-0.026134186961631396,1.1919840454414539,0.19198404544145387,0.19198404544145387,-0.03649761436580671,1.5615084755977027,0.5615084755977027,0.5615084755977027
2025-11-24,2025-11-25,2025-12-02,5,10,298,0.9848993288580756,0.038952066480644296,0.015527807559757276,0.014237023163834683,0.012322486272760669,0.008721580999143663,equal_weight,0.9999999999989999,0.0999999999998,2.302585092982743,1.0,0.0,0.0,0.0,1.0,1.000088900582341e-12,0.0,1.8994495517021828,0.8994495517021828,0.8994495517021828,1.2104929443133698,0.21049294431336985,0.21049294431336985,1.2063936278281757,0.20639362782817572,0.20639362782817572,1.2970809189130552,0.2970809189130552,0.2970809189130552,1.3000722284274158,0.30007222842741577,0.30007222842741577,0.02342425892088702,1.598085654437263,0.598085654437263,0.598085654437263,0.024715043316809612,1.6064459587118218,0.6064459587118218,0.6064459587118218,0.026629580207883627,1.495683816625318,0.4956838166253179,0.4956838166253179,0.030230485481500632,1.478067320766836,0.478067320766836,0.478067320766836,0.015527807559757276,1.2104929443133698,0.21049294431336985,0.21049294431336985,0.02342425892088702,1.598085654437263,0.598085654437263,0.598085654437263
2025-12-01,2025-12-02,2025-12-09,5,10,298,0.9848993288580756,0.05583006139765868,0.001855986300919113,0.009636533105271905,0.011508740890481706,0.009217059943023242,equal_weight,0.9999999999989999,0.0999999999998,2.302585092982743,1.0,0.0,0.0,0.0,1.0,1.000088900582341e-12,0.0,2.0054959367954712,1.0054959367954712,1.0054959367954712,1.2127396026353747,0.21273960263537472,0.21273960263537472,1.218019079960731,0.2180190799607311,0.2180190799607311,1.3120086871228134,0.3120086871228134,0.3120086871228134,1.3120550720870912,0.31205507208709116,0.31205507208709116,0.053974075096739564,1.6843408495608818,0.6843408495608818,0.6843408495608818,0.04619352829238677,1.680653365555767,0.6806533655557669,0.6806533655557669,0.04432132050717697,1.5619744984393664,0.5619744984393664,0.5619744984393664,0.046613001454635435,1.5469644749397897,0.5469644749397897,0.5469644749397897,0.001855986300919113,1.2127396026353747,0.21273960263537472,0.21273960263537472,0.053974075096739564,1.6843408495608818,0.6843408495608818,0.6843408495608818
2025-12-08,2025-12-09,2025-12-16,5,10,298,0.9848993288580756,-0.032944768806885384,-0.01488749178256076,-0.02189280511188796,-0.016851777323492967,-0.026957758356249473,equal_weight,0.5999999999994,0.0999999999998,2.302585092982743,1.0,0.0,0.0,0.0,1.0,1.000088900582341e-12,0.0,1.9394253368145964,0.9394253368145964,0.9394253368145964,1.1946849517667546,0.1946849517667546,0.1946849517667546,1.1913532256205897,0.19135322562058965,0.19135322562058965,1.2898990088809315,0.28989900888093145,0.28989900888093145,1.2766850085036758,0.27668500850367583,0.27668500850367583,-0.018057277024324622,1.6539262402369748,0.6539262402369748,0.6539262402369748,-0.011051963694997426,1.6620788455757693,0.6620788455757693,0.6620788455757693,-0.016092991483392417,1.5368376561387056,0.5368376561387056,0.5368376561387056,-0.0059870104506359115,1.5377027824615628,0.5377027824615628,0.5377027824615628,-0.01488749178256076,1.1946849517667546,0.1946849517667546,0.1946849517667546,-0.018057277024324622,1.6539262402369748,0.6539262402369748,0.6539262402369748
2025-12-15,2025-12-16,2025-12-23,5,10,297,0.9848484848475001,0.04148482689779533,0.017432777256365325,0.027387991920054144,0.03648841025526739,0.029352708720316478,equal_weight,0.7999999999992,0.0999999999998,2.302585092982743,1.0,0.0,0.0,0.0,1.0,1.000088900582341e-12,0.0,2.0198820611935484,1.0198820611935484,1.0198820611935484,1.215511628422436,0.2155116284224361,0.2155116284224361,1.2239819981378168,0.22398199813781683,0.22398199813781683,1.3369653731048416,0.33696537310484165,0.33696537310484165,1.314159171685879,0.3141591716858789,0.3141591716858789,0.024052049641430002,1.6937065562704183,0.6937065562704183,0.6937065562704183,0.014096834977741182,1.6855088967818457,0.6855088967818457,0.6855088967818457,0.004996416642527937,1.5445163373807007,0.5445163373807007,0.5445163373807007,0.012132118177478848,1.5563583743402247,0.5563583743402247,0.5563583743402247,0.017432777256365325,1.215511628422436,0.2155116284224361,0.2155116284224361,0.024052049641430002,1.6937065562704183,0.6937065562704183,0.6937065562704183
2025-12-22,2025-12-23,2025-12-30,5,10,298,0.9848993288580756,0.013388537921643674,0.003399968222166646,0.00661107088181212,0.027856684763750694,0.02771474023391507,equal_weight,0.1999999999998,0.0999999999998,2.302585092982743,1.0,0.0,0.0,0.0,1.0,1.000088900582341e-12,0.0,2.046925328767086,1.0469253287670859,1.0469253287670859,1.2196443293327464,0.21964432933274636,0.21964432933274636,1.232073829885568,0.23207382988556802,0.23207382988556802,1.3742087960434735,0.37420879604347346,0.37420879604347346,1.35058075175517,0.35058075175517,0.35058075175517,0.009988569699477028,1.7106242622581866,0.7106242622581866,0.7106242622581866,0.0067774670398315535,1.6969323777751275,0.6969323777751275,0.6969323777751275,-0.01446814684210702,1.5221700482114433,0.5221700482114433,0.5221700482114433,-0.014326202312271396,1.5340616693990288,0.5340616693990288,0.5340616693990288,0.003399968222166646,1.2196443293327464,0.21964432933274636,0.21964432933274636,0.009988569699477028,1.7106242622581866,0.7106242622581866,0.7106242622581866
