signal_ts,ic,rank_ic,n
2025-01-02,0.22469821215932695,0.18062953130067225,297
2025-01-03,0.14505157942935012,0.09525007008228487,297
2025-01-06,0.19476434418120317,0.18032629945381623,297
2025-01-07,0.23922774885271483,0.2002986476286739,298
2025-01-08,0.04689602892826012,0.019186046907085717,298
2025-01-09,-0.04865362616723343,-0.007908992735371491,298
2025-01-10,0.24095381379380482,0.29463188020235004,297
2025-01-13,0.3539986822044411,0.35084794984123846,297
2025-01-14,0.3419355847228728,0.2893839538134841,297
2025-01-15,0.3281372536276989,0.2334880640249768,297
2025-01-16,0.25601962472628587,0.1920025577743699,297
2025-01-17,-0.029218562945182623,-0.10984278827873807,298
2025-01-20,-0.08491132590639468,-0.17601958395655504,298
2025-01-21,-0.10236681841397705,-0.1336928804101258,298
2025-01-22,0.05216194692700291,0.03728266027653247,298
2025-01-23,0.10870695712757003,0.11091703096371902,298
2025-01-24,0.20518437201304462,0.23952278956655962,298
2025-01-27,0.24299012155906166,0.32294959198956863,298
2025-02-05,0.1950685893419615,0.2914229044955628,298
2025-02-06,0.05007300950169705,0.029546782902487606,297
2025-02-07,0.13622203943406053,0.1485863532843399,297
2025-02-10,0.11446756056820304,0.0905445104452983,298
2025-02-11,0.0030361337497443026,-0.046476073613511595,298
2025-02-12,0.10949604851321762,0.07787942045310005,298
2025-02-13,0.2596798555413433,0.28023744889808505,298
2025-02-14,0.2589474564992902,0.26548001167201635,299
2025-02-17,0.26905220635411425,0.2961859441987834,299
2025-02-18,0.3560315162369057,0.38765953626181227,299
2025-02-19,0.2133159169267731,0.21699400686853265,299
2025-02-20,-0.182508910829733,-0.18799802473569616,299
2025-02-21,-0.42152236598336673,-0.4330744539965433,299
2025-02-24,-0.39664734001589896,-0.38114733562647185,298
2025-02-25,-0.31481125025757195,-0.2970775293506545,298
2025-02-26,-0.2875583961100814,-0.3459113593341781,298
2025-02-27,0.07579846023295021,-0.01574747270691245,298
2025-02-28,0.26008776273974443,0.26279608275523064,298
2025-03-03,0.24312662649781341,0.24867267090786202,298
2025-03-04,0.14417880010020215,0.14313705618053443,298
2025-03-05,-0.09378457424860336,-0.17952118885880192,298
2025-03-06,-0.20646977763202132,-0.28669877604806115,298
2025-03-07,-0.09900394989172916,-0.1807545954029759,298
2025-03-10,0.0018643209889664088,-0.025949136944176335,299
2025-03-11,-0.13875967571690287,-0.20329105968440664,299
2025-03-12,-0.22321831551842108,-0.28131983569392377,299
2025-03-13,-0.26626447680465626,-0.3539848712711275,299
2025-03-14,-0.4829439231615336,-0.520369913133263,299
2025-03-17,-0.5410231182328769,-0.5783377534179985,298
2025-03-18,-0.5687712590350568,-0.5982368634834349,298
2025-03-19,-0.5115455748723235,-0.5371449851315624,297
2025-03-20,-0.26532391516512716,-0.3593068358169029,297
2025-03-21,-0.2331339108244912,-0.27827385042150143,297
2025-03-24,-0.15348885723010935,-0.1987964169172223,297
2025-03-25,-0.1138476536974738,-0.1661563943443138,297
2025-03-26,-0.06852004032163714,-0.10582974676934409,297
2025-03-27,-0.328878168789973,-0.3386755254277869,298
2025-03-28,-0.3260564563170483,-0.34537401126254347,298
2025-03-31,-0.3348719495635499,-0.3533379722116226,299
2025-04-01,-0.2237182015932461,-0.24020605598078604,299
2025-04-02,-0.22742502795251093,-0.245487194451303,299
2025-04-03,0.16464033307694367,0.15373886108055934,299
2025-04-07,0.19342110801465953,0.15093892392987812,299
2025-04-08,0.2438898094154386,0.20179030773720005,299
2025-04-09,-0.06059407862635081,-0.19745998967475478,299
2025-04-10,-0.08344683809975478,-0.1436434647931584,299
2025-04-11,-0.2760318418424131,-0.32526183475118403,299
2025-04-14,-0.06625283783362876,-0.12827321496711633,299
2025-04-15,0.10211091351278584,0.06848106664272408,299
2025-04-16,0.03102510851365305,0.007841350362505892,299
2025-04-17,0.0008077396726733987,-0.03534780364077125,299
2025-04-18,-0.01565095791559141,-0.013926062265717942,299
2025-04-21,-0.2023667548275965,-0.19631209176000536,299
2025-04-22,-0.09959701812853401,-0.06717424973625732,299
2025-04-23,0.10529252025074556,0.10524746919261073,299
2025-04-24,0.2406768574782009,0.20538483984646805,299
2025-04-25,0.17462402815477662,0.1536450360261274,299
2025-04-28,0.19874542549495003,0.1984000359138964,299
2025-04-29,0.037936817608528774,-0.04650445556777625,299
2025-04-30,-0.048498621170838925,-0.1961145653296222,299
2025-05-06,-0.1374368547037929,-0.31143094431101437,299
2025-05-07,-0.26876214300097423,-0.31339274090368346,299
2025-05-08,-0.20286306689719508,-0.23341608493636506,299
2025-05-09,-0.32731288930195224,-0.3692217907566609,299
2025-05-12,-0.29535528095610875,-0.34064240982245064,299
2025-05-13,-0.20969140907484649,-0.2457376938789253,299
2025-05-14,0.12406684908560478,0.07139951965163521,299
2025-05-15,-0.01082590626581271,-0.08553298466925546,299
2025-05-16,0.09944549623983578,0.03137662454265898,299
2025-05-19,-0.0005277095724166891,-0.07658234383066598,299
2025-05-20,-0.0961103055998454,-0.15959147942807117,299
2025-05-21,-0.03686835975854222,-0.10997239119211691,299
2025-05-22,-0.04851045842773516,-0.10366097281766964,299
2025-05-23,-0.027108981999453184,-0.06777401180669344,299
2025-05-26,0.07522455765812801,0.0054911531421598546,297
2025-05-27,0.15453738214129328,0.11463354751945357,297
2025-05-28,0.16890600767285777,0.15433676507502012,297
2025-05-29,0.21255622532584953,0.15721471929525624,297
2025-05-30,0.1969940398704031,0.09827597579275434,297
2025-06-03,0.1865706869004544,0.10076641620265782,297
2025-06-04,0.12901300026702808,0.05762092171488145,297
2025-06-05,0.05252239309914271,0.016116177190002696,297
2025-06-06,0.05819148664445072,0.002557774369854907,297
2025-06-09,0.0699889959090238,-0.025801274123421782,297
2025-06-10,-0.08873975747667455,-0.1637471661691096,299
2025-06-11,0.07644948048000927,-0.03921528136293237,299
2025-06-12,-0.059980316742005,-0.1010657448766582,299
2025-06-13,-0.12133350031237572,-0.12341586047451236,299
2025-06-16,-0.0710496229893834,-0.04701577966824538,299
2025-06-17,0.22250993787869397,0.20808780947677943,299
2025-06-18,0.10180124077779072,0.022606899957352246,299
2025-06-19,0.17209679496466737,0.0909218648290723,299
2025-06-20,0.34592451826947124,0.32046284034028416,299
2025-06-23,0.39355712933579423,0.3744481605351171,299
2025-06-24,0.1545321689703631,0.11386815110771924,299
2025-06-25,-0.02481831304609665,-0.07544836255078449,299
2025-06-26,0.1076189647943901,-0.015930506610401563,299
2025-06-27,-0.11481552880534038,-0.19288007003209803,299
2025-06-30,-0.11402965981253627,-0.20373369845794706,299
2025-07-01,0.07724085829930116,-0.05373212722497812,299
2025-07-02,0.0369456952101724,-0.12967879508877467,299
2025-07-03,-0.027052580608824598,-0.1079930865749366,299
2025-07-04,0.06878454588019547,0.04270880563848174,299
2025-07-07,0.18722091758449433,0.13444456914547373,299
2025-07-08,0.207581057537489,0.1377755830396624,299
2025-07-09,0.292114431268557,0.2417193777917443,299
2025-07-10,0.4053973407902364,0.3948777805212004,299
2025-07-11,0.2520357629298341,0.21355839375098198,299
2025-07-14,0.08888456308473523,0.10256963928980269,299
2025-07-15,-0.1587952793501748,-0.12782339341428925,299
2025-07-16,-0.010721298765014611,0.05952732808142312,300
2025-07-17,-0.14508118927471192,-0.1165457393971044,300
2025-07-18,0.16469813117716808,0.18631984799831108,300
2025-07-21,0.29449075780016915,0.30284380937565974,300
2025-07-22,0.4660111504656839,0.4685834287047634,300
2025-07-23,0.4486540361262259,0.4276265291836576,300
2025-07-24,0.32542887957471434,0.19388259869554106,300
2025-07-25,0.09629882372900113,-0.04217380193113257,300
2025-07-28,-0.01715433712955566,-0.05096989966555183,300
2025-07-29,-0.1763493289286899,-0.1810251225013611,300
2025-07-30,-0.2026948927532725,-0.22938121534683714,300
2025-07-31,-0.2756314830207942,-0.3325628062534028,300
2025-08-01,0.09210841490051278,0.07735997066634073,300
2025-08-04,0.11870307011902606,0.09663935714125385,299
2025-08-05,0.2927488409044066,0.23935265201678974,299
2025-08-06,0.30843500799680396,0.2652802406231061,299
2025-08-07,0.44469382765210497,0.42856052613858275,299
2025-08-08,0.46110621945960895,0.4685264079369711,299
2025-08-11,0.49479736327717894,0.4865412673116204,299
2025-08-12,0.34992049084001303,0.32966442953020136,299
2025-08-13,0.3345322056229889,0.3655025712218592,298
2025-08-14,0.35741203766081364,0.3563531433388451,298
2025-08-15,0.39874297019358773,0.4210013311268053,298
2025-08-18,0.30132242086162997,0.28238558057058205,299
2025-08-19,0.4310127264094309,0.44101645573839704,300
2025-08-20,0.372195621729764,0.33887932088134315,300
2025-08-21,0.3830881441083527,0.3843309370104112,300
2025-08-22,0.3886004696744306,0.41014722385804286,300
2025-08-25,0.42286086316905114,0.45183879820886896,300
2025-08-26,0.2482763341601493,0.18246158290647674,300
2025-08-27,0.22833828855168184,0.13433704818942432,300
2025-08-28,-0.10029380910007116,-0.22143046033844815,300
2025-08-29,-0.10374090480816173,-0.17586462071800799,300
2025-09-01,-0.20320389098079947,-0.30266301542052926,299
2025-09-02,-0.07598874699125316,-0.1633750084173195,299
2025-09-03,-0.11197065709021037,-0.20436443626405693,299
2025-09-04,0.4721537481076361,0.5128827635743306,299
2025-09-05,0.3539656102018579,0.32334941976611076,299
2025-09-08,0.4084586047574705,0.34803304078471864,299
2025-09-09,0.46674839953398545,0.4212846809408994,300
2025-09-10,0.4701531778238785,0.4221846909410104,300
2025-09-11,0.40069747197240896,0.35591995466616294,300
2025-09-12,0.29482325276967586,0.21931843687152078,300
2025-09-15,0.33131057691557536,0.23218791319903553,300
2025-09-16,0.20078040701796618,0.0455142834920388,300
2025-09-17,0.36546903680766596,0.3057838420426893,300
2025-09-18,0.36333673197991745,0.2925383615373504,300
2025-09-19,0.29663335979937006,0.2199686663185146,300
2025-09-22,0.30448689890228153,0.30586873187479857,300
2025-09-23,0.3705996482440156,0.36803831153679484,300
2025-09-24,0.030606000899311894,-0.059094878831987024,300
2025-09-25,-0.23228699627881622,-0.2835947066078512,300
2025-09-26,-0.08722795062555898,-0.17583084256491738,300
2025-09-29,-0.5704268933045022,-0.5615324614717941,300
2025-09-30,-0.5934483861351896,-0.5774224158046201,300
2025-10-09,-0.5983334218390015,-0.6135974844164934,300
2025-10-10,-0.46695807980998766,-0.5018495761064011,300
2025-10-13,-0.5436587847247655,-0.5851096123290258,300
2025-10-14,-0.0359794061981283,-0.17575439727108078,300
2025-10-15,-0.35905499486135045,-0.44748586095401055,300
2025-10-16,0.05070823647812904,-0.056062400693341036,300
2025-10-17,0.3347918161191272,0.26649140546006067,300
2025-10-20,0.304803453280943,0.2345652729474772,300
2025-10-21,0.42272627545599367,0.42661185124279155,300
2025-10-22,0.39338475850510846,0.40797608862320683,300
2025-10-23,0.2031046134619791,0.1526483627595862,300
2025-10-24,-0.22809740982476825,-0.3054562828475872,300
2025-10-27,-0.16669093726997228,-0.2646873854153935,300
2025-10-28,-0.4478369544141612,-0.48133557039522656,300
2025-10-29,-0.3237766534415028,-0.4111223458038422,300
2025-10-30,-0.24148643743770273,-0.3726796964410716,300
2025-10-31,0.03516619815579011,-0.06969944110490117,300
2025-11-03,-0.0800694749278014,-0.13474594162157358,300
2025-11-04,-0.1197739875598191,-0.16475027500305559,300
2025-11-05,-0.2635422895362474,-0.2728599206657852,300
2025-11-06,-0.29895009811545575,-0.2993095478838654,300
2025-11-07,-0.34935273981129183,-0.37522594695496614,300
2025-11-10,-0.29858422497597525,-0.3250205002277803,300
2025-11-11,0.04241563001659712,0.015589062100690006,300
2025-11-12,-0.08575406660190965,-0.09994377715307948,300
2025-11-13,-0.4304578083258804,-0.4150281669796331,300
2025-11-14,-0.4659033241631031,-0.4440329336992633,300
2025-11-17,-0.3095947882644563,-0.2574450827231413,300
2025-11-18,-0.26008794838892657,-0.24223335814842384,300
2025-11-19,0.06318563151582848,0.08502138912654585,300
2025-11-20,0.3016006015273002,0.2898430558191282,298
2025-11-21,0.4244412958487629,0.43931877868265373,298
2025-11-24,0.20815547333573098,0.19402097108545896,298
2025-11-25,0.12065721084215614,0.0766918131960443,298
2025-11-26,-0.19540233473646426,-0.2460716341661775,298
2025-11-27,-0.05711669036386904,-0.11402412715514554,298
2025-11-28,-0.05033377799860357,-0.09001623153942966,298
2025-12-01,0.138143939658411,0.08045551698892814,298
2025-12-02,0.13362504631007038,0.07609188788062438,298
2025-12-03,0.3314681461063439,0.28821287327269235,298
2025-12-04,0.23227358553264274,0.191749598519368,298
2025-12-05,0.1965596581882132,0.19152604358323644,298
2025-12-08,-0.14927122055162922,-0.14380046565631624,298
2025-12-09,-0.03388957214076468,-0.038854346703777694,298
2025-12-10,-0.1424644211227574,-0.16530119039602553,298
2025-12-11,-0.12072608490682614,-0.17201719718498246,297
2025-12-12,0.019976220233935357,0.017932361892093435,297
2025-12-15,0.2883741352510682,0.263501604105631,297
2025-12-16,0.31524415287776597,0.28967848263150275,297
2025-12-17,0.30063370431536207,0.29878047663282564,297
2025-12-18,0.41685979740277684,0.4634809544117977,299
2025-12-19,0.29449487677012304,0.29427128459518304,299
2025-12-22,0.2340490371332534,0.22907284331270325,298
2025-12-23,0.19665099894857646,0.16437069398843546,298
